
\data\
ngram 1=35
ngram 2=122
ngram 3=112
ngram 4=92
ngram 5=60

\1-grams:
-0.8310873	</s>
-99	<s>	-1.598507
-1.4843	กี่คน	-1.455095
-2.08636	ขอ	-1.223682
-1.4843	ของ	-1.068368
-1.609239	คน	-1.637096
-1.609239	ความคิดเห็น	-0.8435698
-1.78533	จำนวน	-0.8589446
-1.78533	ชอบ	-0.6692102
-2.08636	ดู	-1.256852
-1.4843	ถูกใจ	-0.884916
-1.38739	ที	-1.273096
-1.241262	ที่	-1.596807
-1.78533	นะ	-0.9720662
-1.78533	บ้าง	-1.393072
-1.609239	มี	-1.113861
-2.08636	ละ	-1.393072
-1.609239	ล่าสุด	-0.4857369
-1.609239	สิ	-1.273096
-1.78533	หนังสือ	-0.5491239
-1.38739	หน่อย	-1.134794
-1.609239	หรอ	-1.134794
-1.38739	อะ	-1.678861
-1.241262	อะไร	-0.8338332
-1.78533	เช็คอิน	-0.3760382
-1.38739	เพจ	-0.8298163
-1.4843	เพื่อน	-1.060156
-2.08636	เฟซ	-0.284708
-1.609239	เรา	-0.7209496
-1.78533	เล่น	-1.338848
-1.609239	แชร์	-0.7518593
-1.18327	โพสต์	-2.210014
-2.08636	ใช้	-0.8513252
-2.08636	ไป	-0.1440891
-1.78533	ไหน	-0.5532264

\2-grams:
-0.5591416	<s> ขอ	0
-1.443748	<s> คน	0.2507775
-1.920869	<s> ความคิดเห็น
-1.443748	<s> ที่	-0.6545812
-1.31881	<s> มี	-0.6370598
-1.443748	<s> อะไร	-0.8038977
-0.9208695	<s> เพจ	-1.113298
-0.8416882	<s> เพื่อน	-0.4789926
-0.8416882	<s> เรา	-0.7037379
-0.8794768	<s> โพสต์	-1.438446
-0.234258	กี่คน </s>
-0.4683412	กี่คน ละ	0
-1.313439	กี่คน อะ
-1.084522	ขอ ความคิดเห็น	-0.3542755
-0.9084313	ขอ จำนวน	-0.2850025
-0.3855525	ขอ ดู	0
-1.084522	ขอ หนังสือ	-0.39794
-0.6074013	ขอ เพจ	-1.250863
-0.4581534	ของ เพจ	-0.351073
-0.9352747	ของ เพื่อน
-0.5373347	ของ เรา	-0.05803468
-0.7591834	ของ โพสต์	-0.4574695
-0.1722726	คน ถูกใจ	-0.6768523
-0.5146953	คน แชร์	-0.1676582
-0.3617278	ความคิดเห็น ของ	-0.7620217
-0.3617278	ความคิดเห็น อะไร	-0.1473604
-0.1398791	จำนวน ถูกใจ	-1.093032
-0.8388491	จำนวน แชร์
-0.8866996	ชอบ </s>
-0.8866996	ชอบ ที	0.7403627
-0.8866996	ชอบ สิ	0.7403627
-0.8866996	ชอบ หนังสือ	-0.39794
-0.4887595	ชอบ เพจ	-1.129224
-0.5463598	ดู จำนวน	0.3260123
-0.1783831	ดู เพื่อน	-1.347165
-0.4423591	ถูกใจ กี่คน	0.5291923
-0.6464791	ถูกใจ ของ	-1.018225
-1.345449	ถูกใจ ที
-1.345449	ถูกใจ หน่อย
-1.044419	ถูกใจ เพจ	-0.5736322
-0.8683279	ถูกใจ โพสต์	-0.4574695
-0.02020339	ที </s>
-0.5076246	ที่ เพื่อน	-0.3507195
-0.5076246	ที่ เรา	-0.3357014
-0.4496326	ที่ ไหน	0.06010741
-0.04139268	นะ </s>
-0.01523997	บ้าง </s>
-0.2176386	มี คน	0.3073702
-0.78191	มี ความคิดเห็น	-0.5973135
-1.259031	มี อะไร
-0.9580013	มี โพสต์	-0.3773423
-0.01523997	ละ </s>
-1.412396	ล่าสุด </s>
-0.7134259	ล่าสุด กี่คน	-0.08705428
-1.111366	ล่าสุด คน
-1.111366	ล่าสุด ถูกใจ	-0.4074854
-1.412396	ล่าสุด ที
-1.412396	ล่าสุด ที่
-0.6342447	ล่าสุด มี	0.2143387
-1.412396	ล่าสุด หน่อย
-1.111366	ล่าสุด แชร์	-0.2752228
-0.02020339	สิ </s>
-0.4259687	หนังสือ ที่	-0.4404529
-0.4259687	หนังสือ อะไร
-0.02802872	หน่อย </s>
-0.02802872	หรอ </s>
-0.007825337	อะ </s>
-0.8214723	อะไร </s>
-1.043321	อะไร ที่	-0.6834909
-1.043321	อะไร นะ	0.1962947
-0.742291	อะไร บ้าง	0.1199753
-1.520442	อะไร ล่าสุด
-1.219412	อะไร หรอ	0.60206
-0.8214723	อะไร อะ	0.544068
-1.043321	อะไร เล่น	0.4973247
-1.219412	อะไร ไป
-0.8081145	เช็คอิน </s>
-0.5070845	เช็คอิน ที่	-0.8508759
-1.109144	เช็คอิน ล่าสุด
-1.109144	เช็คอิน อะ
-1.109144	เช็คอิน ไหน
-1.022086	เพจ </s>
-1.198177	เพจ กี่คน
-0.721056	เพจ ที่	-1.180816
-0.6541093	เพจ มี	-0.4533206
-1.198177	เพจ สิ	0.7403627
-1.499207	เพจ หน่อย
-0.8002373	เพจ อะไร	-0.2599807
-1.022086	เพจ โพสต์	-0.6203803
-0.6325493	เพื่อน ของ	-0.7736036
-0.6994961	เพื่อน ชอบ	0.04121874
-1.477647	เพื่อน ที
-1.477647	เพื่อน หน่อย
-0.7786773	เพื่อน เช็คอิน	0.07061793
-1.176617	เพื่อน โพสต์	-0.3773423
-0.6994961	เพื่อน ใช้	0
-1	เฟซ </s>
-1	เฟซ นะ
-0.69897	เฟซ หรอ	0.60206
-0.69897	เฟซ อะ	1.146128
-1.434193	เรา </s>
-0.589095	เรา ชอบ	-0.03027567
-1.133163	เรา ถูกใจ
-1.434193	เรา ที
-1.133163	เรา สิ	0.7403627
-1.434193	เรา หน่อย
-0.8321331	เรา เช็คอิน	0.02563106
-0.6560418	เรา โพสต์	-1.117705
-0.02020339	เล่น เฟซ	0
-0.2766707	แชร์ กี่คน	0.3615341
-0.9756407	แชร์ ของ
-0.6746107	แชร์ โพสต์	-0.2144315
-0.2288616	โพสต์ ล่าสุด	-0.1680591
-0.3936719	โพสต์ อะไร	-0.1322062
-0.3617278	ใช้ อะไร	-0.8038977
-0.3617278	ใช้ เล่น	0.4973247
-0.69897	ไป </s>
-0.69897	ไป บ้าง
-0.451314	ไหน </s>
-0.5762527	ไหน ที่	-0.0724761
-1.053374	ไหน หรอ
-1.053374	ไหน อะ

\3-grams:
-0.3735807	ถูกใจ กี่คน </s>
-0.4985194	ถูกใจ กี่คน ละ	0.6173
-0.1812309	ล่าสุด กี่คน </s>
-0.3061696	แชร์ กี่คน </s>
-0.4822609	แชร์ กี่คน ละ	0.860338
-1.084522	<s> ขอ ความคิดเห็น	0
-0.9084313	<s> ขอ จำนวน	0
-0.3855525	<s> ขอ ดู	0
-1.084522	<s> ขอ หนังสือ	0
-0.6074013	<s> ขอ เพจ	0
-0.06694679	ความคิดเห็น ของ โพสต์	0
-0.02802872	ถูกใจ ของ เพจ	-0.327359
-0.5898255	เพื่อน ของ เพื่อน
-0.1918855	เพื่อน ของ เรา	0
-0.3802112	<s> คน ถูกใจ	-0.4776931
-0.1578982	มี คน ถูกใจ	-0.1119679
-0.583867	มี คน แชร์	0.06186727
-0.1249387	ขอ ความคิดเห็น ของ	0.243038
-0.06694679	มี ความคิดเห็น อะไร	0
-0.06694679	ขอ จำนวน ถูกใจ	0.359022
-0.3802112	ดู จำนวน ถูกใจ	0.60206
-0.69897	เพื่อน ชอบ หนังสือ	0
-0.69897	เพื่อน ชอบ เพจ	0.60206
-0.7067953	เรา ชอบ สิ	0
-0.5307041	เรา ชอบ เพจ	0.359022
-0.5463598	ขอ ดู จำนวน	0
-0.1783831	ขอ ดู เพื่อน	0
-0.30275	คน ถูกใจ กี่คน	0.1597009
-0.7798712	คน ถูกใจ เพจ	0
-0.60378	คน ถูกใจ โพสต์	0
-0.02802872	จำนวน ถูกใจ ของ	0
-0.1249387	ล่าสุด ถูกใจ กี่คน
-0.1249387	ชอบ ที </s>
-0.06694679	<s> ที่ ไหน	-0.7016759
-0.1249387	หนังสือ ที่ เพื่อน	-0.4883168
-0.06694679	อะไร ที่ เพื่อน	-0.6609266
-0.04139268	เช็คอิน ที่ ไหน	0.007202372
-0.02020339	เพจ ที่ เรา	-0.3742217
-0.3802112	ไหน ที่ เพื่อน	-0.4883168
-0.06694679	อะไร นะ </s>
-0.02020339	อะไร บ้าง </s>
-0.04139268	<s> มี คน	0.1569448
-0.60206	ล่าสุด มี คน	-0.4708835
-0.4259687	ล่าสุด มี ความคิดเห็น	0
-0.1918855	เพจ มี คน	-0.6881533
-0.5898255	เพจ มี โพสต์	0
-0.01523997	กี่คน ละ </s>
-0.6463631	โพสต์ ล่าสุด กี่คน	0
-1.044303	โพสต์ ล่าสุด คน
-1.044303	โพสต์ ล่าสุด ถูกใจ	0
-0.5671819	โพสต์ ล่าสุด มี	0
-1.044303	โพสต์ ล่าสุด แชร์	0
-0.1249387	ชอบ สิ </s>
-0.1249387	เพจ สิ </s>
-0.1249387	เรา สิ </s>
-0.1249387	ขอ หนังสือ ที่	0
-0.1249387	ชอบ หนังสือ อะไร
-0.1249387	อะไร หรอ </s>
-0.1249387	เฟซ หรอ </s>
-0.02802872	อะไร อะ </s>
-0.1249387	เฟซ อะ </s>
-0.06694679	<s> อะไร ที่	0
-0.3802112	ความคิดเห็น อะไร บ้าง	0.7403627
-0.5740313	เพจ อะไร นะ	0.243038
-0.5740313	เพจ อะไร หรอ	0
-0.7427803	โพสต์ อะไร </s>
-0.7427803	โพสต์ อะไร บ้าง	0.4973247
-0.7427803	โพสต์ อะไร อะ	0.359022
-0.9188715	โพสต์ อะไร ไป
-0.06694679	ใช้ อะไร เล่น	0
-0.7224511	เพื่อน เช็คอิน ที่	0.4393327
-0.5698753	เรา เช็คอิน ที่	0.4393327
-0.1783831	<s> เพจ มี	0
-0.5463598	<s> เพจ โพสต์	0
-0.02020339	ขอ เพจ ที่	0
-0.4259687	ของ เพจ </s>
-0.60206	ของ เพจ สิ	0
-0.02802872	ชอบ เพจ อะไร	0
-0.1249387	ถูกใจ เพจ กี่คน
-0.5336026	<s> เพื่อน ชอบ	-0.3802112
-0.6585413	<s> เพื่อน เช็คอิน	-0.1428503
-0.8346326	<s> เพื่อน โพสต์	0
-0.6585413	<s> เพื่อน ใช้	-0.5973135
-0.01523997	ดู เพื่อน ของ	0
-0.6374897	ที่ เพื่อน ชอบ
-0.6374897	ที่ เพื่อน เช็คอิน
-0.4613985	ที่ เพื่อน ใช้	-0.5973135
-0.69897	เล่น เฟซ หรอ	0
-0.69897	เล่น เฟซ อะ	0
-0.6354837	<s> เรา ชอบ	-0.6935071
-0.6354837	<s> เรา เช็คอิน	-0.09786345
-0.3344538	<s> เรา โพสต์	0
-0.7224511	ของ เรา สิ	0
-0.3364597	ที่ เรา ชอบ	-0.04124424
-0.6374897	ที่ เรา ถูกใจ
-0.06694679	อะไร เล่น เฟซ
-0.06694679	ใช้ เล่น เฟซ
-0.3061696	คน แชร์ กี่คน	0.06186727
-0.4822609	คน แชร์ โพสต์	0
-0.1249387	ล่าสุด แชร์ กี่คน
-0.006530867	<s> โพสต์ ล่าสุด	-0.5061423
-0.06694679	ของ โพสต์ ล่าสุด
-0.06694679	ถูกใจ โพสต์ ล่าสุด	-0.7339766
-0.1249387	มี โพสต์ อะไร
-0.06694679	เพจ โพสต์ อะไร
-0.1249387	เพื่อน โพสต์ อะไร
-0.02020339	เรา โพสต์ อะไร	-0.01023626
-0.1249387	แชร์ โพสต์ ล่าสุด	-0.4909386
-0.3617278	เพื่อน ใช้ อะไร	0
-0.3617278	เพื่อน ใช้ เล่น	0
-0.5509075	ที่ ไหน </s>
-0.5509075	ที่ ไหน ที่	0

\4-grams:
-0.4259687	คน ถูกใจ กี่คน </s>
-0.60206	คน ถูกใจ กี่คน ละ	0.243038
-0.1812309	โพสต์ ล่าสุด กี่คน </s>
-0.3802112	คน แชร์ กี่คน </s>
-0.1249387	ขอ ความคิดเห็น ของ โพสต์	0.243038
-0.02802872	จำนวน ถูกใจ ของ เพจ	0
-0.5898255	ดู เพื่อน ของ เพื่อน
-0.1918855	ดู เพื่อน ของ เรา	0
-0.2498775	<s> มี คน ถูกใจ	-0.1308637
-0.1249387	ล่าสุด มี คน แชร์	-0.3679768
-0.02802872	เพจ มี คน ถูกใจ	-0.8772828
-0.1249387	<s> ขอ ความคิดเห็น ของ	0
-0.06694679	ล่าสุด มี ความคิดเห็น อะไร	0
-0.06694679	<s> ขอ จำนวน ถูกใจ	0
-0.3802112	ขอ ดู จำนวน ถูกใจ	0
-0.4259687	<s> เพื่อน ชอบ หนังสือ	0
-0.4259687	<s> เพื่อน ชอบ เพจ	0
-0.06694679	<s> เรา ชอบ เพจ	0
-0.5698753	ที่ เรา ชอบ สิ	0
-0.5463598	<s> ขอ ดู จำนวน	0
-0.1783831	<s> ขอ ดู เพื่อน	0
-0.1249387	<s> คน ถูกใจ โพสต์	0.243038
-0.2766707	มี คน ถูกใจ กี่คน	0.09497553
-0.6746107	มี คน ถูกใจ เพจ	0
-0.06694679	ขอ จำนวน ถูกใจ ของ	0.359022
-0.1249387	ดู จำนวน ถูกใจ ของ	0.60206
-0.1249387	โพสต์ ล่าสุด ถูกใจ กี่คน
-0.1249387	ขอ หนังสือ ที่ เพื่อน	0
-0.06694679	<s> อะไร ที่ เพื่อน	0
-0.1249387	เพื่อน เช็คอิน ที่ ไหน
-0.1249387	เรา เช็คอิน ที่ ไหน	-0.4658403
-0.02020339	ขอ เพจ ที่ เรา	0
-0.3802112	ที่ ไหน ที่ เพื่อน	0
-0.1249387	เพจ อะไร นะ </s>
-0.1249387	ความคิดเห็น อะไร บ้าง </s>
-0.06694679	โพสต์ อะไร บ้าง </s>
-0.60206	โพสต์ ล่าสุด มี คน	0
-0.4259687	โพสต์ ล่าสุด มี ความคิดเห็น	0
-0.1918855	<s> เพจ มี คน	0
-0.5898255	<s> เพจ มี โพสต์	0
-0.06694679	ถูกใจ กี่คน ละ </s>
-0.1249387	แชร์ กี่คน ละ </s>
-0.8073095	<s> โพสต์ ล่าสุด คน
-0.8073095	<s> โพสต์ ล่าสุด ถูกใจ	0
-0.4093695	<s> โพสต์ ล่าสุด มี	-0.327359
-0.8073095	<s> โพสต์ ล่าสุด แชร์	0
-0.06694679	ถูกใจ โพสต์ ล่าสุด กี่คน	0.2329377
-0.1249387	แชร์ โพสต์ ล่าสุด กี่คน	-0.1350391
-0.1249387	เรา ชอบ สิ </s>
-0.1249387	ของ เพจ สิ </s>
-0.1249387	ของ เรา สิ </s>
-0.1249387	<s> ขอ หนังสือ ที่	0
-0.1249387	เพื่อน ชอบ หนังสือ อะไร
-0.1249387	เพจ อะไร หรอ </s>
-0.1249387	เล่น เฟซ หรอ </s>
-0.06694679	โพสต์ อะไร อะ </s>
-0.1249387	เล่น เฟซ อะ </s>
-0.3802112	มี ความคิดเห็น อะไร บ้าง	0
-0.5740313	ชอบ เพจ อะไร นะ	0
-0.5740313	ชอบ เพจ อะไร หรอ	0
-0.8507019	เรา โพสต์ อะไร ไป
-0.06694679	เพื่อน ใช้ อะไร เล่น	0
-0.3802112	<s> เพื่อน เช็คอิน ที่	0
-0.3802112	<s> เรา เช็คอิน ที่	0
-0.02020339	<s> ขอ เพจ ที่	0
-0.3061696	ถูกใจ ของ เพจ </s>
-0.4822609	ถูกใจ ของ เพจ สิ	0
-0.1249387	เพื่อน ชอบ เพจ อะไร
-0.06694679	เรา ชอบ เพจ อะไร
-0.1249387	คน ถูกใจ เพจ กี่คน
-0.01523997	ขอ ดู เพื่อน ของ	0
-0.1249387	หนังสือ ที่ เพื่อน ชอบ
-0.06694679	อะไร ที่ เพื่อน ใช้	0
-0.1249387	ไหน ที่ เพื่อน เช็คอิน
-0.7224511	เพื่อน ของ เรา สิ	0
-0.2367891	เพจ ที่ เรา ชอบ	0
-0.5378191	เพจ ที่ เรา ถูกใจ
-0.06694679	ใช้ อะไร เล่น เฟซ
-0.06694679	เพื่อน ใช้ เล่น เฟซ
-0.3802112	มี คน แชร์ กี่คน
-0.1249387	โพสต์ ล่าสุด แชร์ กี่คน
-0.06694679	ความคิดเห็น ของ โพสต์ ล่าสุด
-0.06694679	คน ถูกใจ โพสต์ ล่าสุด	0
-0.1249387	เพจ มี โพสต์ อะไร
-0.06694679	<s> เพจ โพสต์ อะไร
-0.1249387	<s> เพื่อน โพสต์ อะไร
-0.02020339	<s> เรา โพสต์ อะไร	0
-0.1249387	คน แชร์ โพสต์ ล่าสุด	0
-0.06694679	<s> เพื่อน ใช้ อะไร	0
-0.06694679	ที่ เพื่อน ใช้ เล่น	0
-0.06694679	<s> ที่ ไหน ที่	0
-0.5698753	เช็คอิน ที่ ไหน </s>

\5-grams:
-0.5740313	มี คน ถูกใจ กี่คน </s>
-0.5740313	มี คน ถูกใจ กี่คน ละ
-0.3802112	ถูกใจ โพสต์ ล่าสุด กี่คน </s>
-0.1249387	แชร์ โพสต์ ล่าสุด กี่คน </s>
-0.1249387	<s> ขอ ความคิดเห็น ของ โพสต์
-0.06694679	ขอ จำนวน ถูกใจ ของ เพจ
-0.1249387	ดู จำนวน ถูกใจ ของ เพจ
-0.5898255	ขอ ดู เพื่อน ของ เพื่อน
-0.1918855	ขอ ดู เพื่อน ของ เรา
-0.1249387	โพสต์ ล่าสุด มี คน แชร์
-0.02802872	<s> เพจ มี คน ถูกใจ
-0.06694679	โพสต์ ล่าสุด มี ความคิดเห็น อะไร
-0.3802112	<s> ขอ ดู จำนวน ถูกใจ
-0.5698753	เพจ ที่ เรา ชอบ สิ
-0.3802112	<s> มี คน ถูกใจ เพจ
-0.02802872	เพจ มี คน ถูกใจ กี่คน
-0.06694679	<s> ขอ จำนวน ถูกใจ ของ
-0.1249387	ขอ ดู จำนวน ถูกใจ ของ
-0.1249387	<s> โพสต์ ล่าสุด ถูกใจ กี่คน
-0.1249387	<s> ขอ หนังสือ ที่ เพื่อน
-0.1249387	<s> เพื่อน เช็คอิน ที่ ไหน
-0.1249387	<s> เรา เช็คอิน ที่ ไหน
-0.02020339	<s> ขอ เพจ ที่ เรา
-0.3802112	<s> ที่ ไหน ที่ เพื่อน
-0.1249387	ชอบ เพจ อะไร นะ </s>
-0.1249387	มี ความคิดเห็น อะไร บ้าง </s>
-0.4822609	<s> โพสต์ ล่าสุด มี คน
-0.3061696	<s> โพสต์ ล่าสุด มี ความคิดเห็น
-0.1249387	คน ถูกใจ กี่คน ละ </s>
-0.06694679	คน ถูกใจ โพสต์ ล่าสุด กี่คน
-0.1249387	คน แชร์ โพสต์ ล่าสุด กี่คน
-0.1249387	ที่ เรา ชอบ สิ </s>
-0.1249387	ถูกใจ ของ เพจ สิ </s>
-0.1249387	เพื่อน ของ เรา สิ </s>
-0.1249387	<s> เพื่อน ชอบ หนังสือ อะไร
-0.1249387	ชอบ เพจ อะไร หรอ </s>
-0.3802112	ล่าสุด มี ความคิดเห็น อะไร บ้าง
-0.8507019	<s> เรา โพสต์ อะไร ไป
-0.06694679	<s> เพื่อน ใช้ อะไร เล่น
-0.3061696	จำนวน ถูกใจ ของ เพจ </s>
-0.4822609	จำนวน ถูกใจ ของ เพจ สิ
-0.1249387	<s> เพื่อน ชอบ เพจ อะไร
-0.06694679	<s> เรา ชอบ เพจ อะไร
-0.1249387	มี คน ถูกใจ เพจ กี่คน
-0.01523997	<s> ขอ ดู เพื่อน ของ
-0.1249387	ขอ หนังสือ ที่ เพื่อน ชอบ
-0.06694679	<s> อะไร ที่ เพื่อน ใช้
-0.1249387	ที่ ไหน ที่ เพื่อน เช็คอิน
-0.7224511	ดู เพื่อน ของ เรา สิ
-0.2367891	ขอ เพจ ที่ เรา ชอบ
-0.5378191	ขอ เพจ ที่ เรา ถูกใจ
-0.06694679	เพื่อน ใช้ อะไร เล่น เฟซ
-0.06694679	ที่ เพื่อน ใช้ เล่น เฟซ
-0.1249387	ล่าสุด มี คน แชร์ กี่คน
-0.1249387	<s> โพสต์ ล่าสุด แชร์ กี่คน
-0.1249387	ขอ ความคิดเห็น ของ โพสต์ ล่าสุด
-0.1249387	<s> คน ถูกใจ โพสต์ ล่าสุด
-0.1249387	<s> เพจ มี โพสต์ อะไร
-0.06694679	อะไร ที่ เพื่อน ใช้ เล่น
-0.1249387	เรา เช็คอิน ที่ ไหน </s>

\end\
