
\data\
ngram 1=35
ngram 2=122
ngram 3=110
ngram 4=86
ngram 5=56

\1-grams:
-0.8310873	</s>
-99	<s>	-1.577255
-1.4843	กี่คน	-1.407818
-2.08636	ขอ	-1.186595
-1.4843	ของ	-1.015662
-1.609239	คน	-1.583577
-1.609239	ความคิดเห็น	-0.7122909
-1.78533	จำนวน	-0.8589446
-1.78533	ชอบ	-0.6692102
-2.08636	ดู	-1.173075
-1.4843	ถูกใจ	-0.8896624
-1.38739	ที	-1.273096
-1.241262	ที่	-1.596807
-1.78533	นะ	-0.9720662
-1.78533	บ้าง	-0.6581939
-1.609239	มี	-1.011383
-2.08636	ละ	-1.273096
-1.609239	ล่าสุด	-0.410539
-1.609239	สิ	-1.273096
-1.78533	หนังสือ	-0.5491239
-1.4843	หน่อย	-0.9720662
-1.609239	หรอ	-1.273096
-1.308209	อะ	-1.894461
-1.241262	อะไร	-0.8283008
-1.78533	เช็คอิน	-0.3710174
-1.38739	เพจ	-0.8647078
-1.4843	เพื่อน	-1.034214
-2.08636	เฟซ	-0.2800631
-1.609239	เรา	-0.8213586
-1.78533	เล่น	-1.338848
-1.609239	แชร์	-0.6521565
-1.18327	โพสต์	-2.182965
-2.08636	ใช้	-0.8513252
-2.08636	ไป	-0.1440891
-1.78533	ไหน	-0.548319

\2-grams:
-0.5680798	<s> ขอ	0
-1.433381	<s> คน	0.3115301
-1.910502	<s> ความคิดเห็น
-1.433381	<s> ที่	-0.6545812
-1.308442	<s> มี	-0.6292123
-1.433381	<s> อะไร	-0.8038977
-0.8691098	<s> เพจ	-1.175747
-0.8313212	<s> เพื่อน	-0.4547372
-0.8313212	<s> เรา	-0.6540791
-0.95626	<s> โพสต์	-1.32069
-0.2510766	กี่คน </s>
-0.514318	กี่คน ละ	0
-0.9914393	กี่คน อะ	1.361728
-1.067406	ขอ ความคิดเห็น	-0.3061095
-0.8913149	ขอ จำนวน	-0.2850025
-0.4141936	ขอ ดู	0
-1.067406	ขอ หนังสือ	-0.39794
-0.5902849	ขอ เพจ	-1.253699
-0.4344569	ของ เพจ	-0.3533485
-0.9115781	ของ เพื่อน
-0.6105481	ของ เรา	-0.1007843
-0.7354869	ของ โพสต์	-0.5030297
-0.1455114	คน ถูกใจ	-0.6768523
-0.5848441	คน แชร์	-0.09167504
-0.3061696	ความคิดเห็น ของ	-0.7568569
-0.4822609	ความคิดเห็น อะไร
-0.1398791	จำนวน ถูกใจ	-1.093032
-0.8388491	จำนวน แชร์
-0.8866996	ชอบ </s>
-0.8866996	ชอบ ที	0.7403627
-0.8866996	ชอบ สิ	0.7403627
-0.8866996	ชอบ หนังสือ	-0.39794
-0.4887595	ชอบ เพจ	-1.1315
-0.5057665	ดู จำนวน	0.3260123
-0.2047364	ดู เพื่อน	-1.24221
-0.4423591	ถูกใจ กี่คน	0.2902216
-0.6464791	ถูกใจ ของ	-1.005014
-1.345449	ถูกใจ ที
-1.345449	ถูกใจ หน่อย
-1.044419	ถูกใจ เพจ	-0.5744514
-0.8683279	ถูกใจ โพสต์	-0.5030297
-0.02020339	ที </s>
-0.5076246	ที่ เพื่อน	-0.3324724
-0.5076246	ที่ เรา	-0.3215652
-0.4496326	ที่ ไหน	0.06010741
-0.04139268	นะ </s>
-0.1812309	บ้าง </s>
-0.7832909	บ้าง อะ
-0.2126081	มี คน	0.3304851
-0.9115781	มี ความคิดเห็น	-0.4285159
-1.212608	มี อะไร
-0.9115781	มี โพสต์	-0.3432965
-0.02020339	ละ </s>
-1.390086	ล่าสุด </s>
-0.691116	ล่าสุด กี่คน	-0.1095359
-1.089056	ล่าสุด คน
-1.089056	ล่าสุด ถูกใจ	-0.4074854
-1.390086	ล่าสุด ที
-1.390086	ล่าสุด ที่
-0.788026	ล่าสุด มี	-0.07942697
-1.390086	ล่าสุด หน่อย
-1.089056	ล่าสุด แชร์	-0.3337861
-0.02020339	สิ </s>
-0.4259687	หนังสือ ที่	-0.4404529
-0.4259687	หนังสือ อะไร
-0.04139268	หน่อย </s>
-0.02020339	หรอ </s>
-0.004746435	อะ </s>
-0.8214723	อะไร </s>
-1.043321	อะไร ที่	-0.6834909
-1.043321	อะไร นะ	0.1962947
-0.9183823	อะไร บ้าง	0.107999
-1.520442	อะไร ล่าสุด
-1.043321	อะไร หรอ	0.4973247
-0.742291	อะไร อะ	0.6213651
-1.043321	อะไร เล่น	0.4973247
-1.219412	อะไร ไป
-0.8081145	เช็คอิน </s>
-0.5070845	เช็คอิน ที่	-0.8508759
-1.109144	เช็คอิน ล่าสุด
-1.109144	เช็คอิน อะ
-1.109144	เช็คอิน ไหน
-1.03438	เพจ </s>
-1.210471	เพจ กี่คน
-0.7333497	เพจ ที่	-1.180816
-0.6664029	เพจ มี	-0.4224522
-1.210471	เพจ สิ	0.7403627
-1.511501	เพจ หน่อย
-0.8125309	เพจ อะไร	-0.2442704
-0.909441	เพจ โพสต์	-0.7826291
-0.6860051	เพื่อน ของ	-0.685501
-0.6860051	เพื่อน ชอบ	0.04121874
-1.464156	เพื่อน ที
-1.464156	เพื่อน หน่อย
-0.7651863	เพื่อน เช็คอิน	0.07061793
-1.163126	เพื่อน โพสต์	-0.3432965
-0.6860051	เพื่อน ใช้	0
-1	เฟซ </s>
-1	เฟซ นะ
-0.69897	เฟซ หรอ	0.7403627
-0.69897	เฟซ อะ	1.361728
-1.406974	เรา </s>
-0.5618761	เรา ชอบ	-0.03027567
-1.105944	เรา ถูกใจ
-1.406974	เรา ที
-1.105944	เรา สิ	0.7403627
-0.8049141	เรา เช็คอิน	0.02563106
-0.6288229	เรา โพสต์	-1.083659
-0.02020339	เล่น เฟซ	0
-0.3364597	แชร์ กี่คน	0.2212653
-0.9385197	แชร์ ของ
-0.6374897	แชร์ โพสต์	-0.2599917
-0.2635369	โพสต์ ล่าสุด	-0.1553432
-0.3478578	โพสต์ อะไร	-0.0741058
-0.3617278	ใช้ อะไร	-0.8038977
-0.3617278	ใช้ เล่น	0.4973247
-0.69897	ไป </s>
-0.69897	ไป บ้าง
-0.451314	ไหน </s>
-0.5762527	ไหน ที่	-0.0724761
-1.053374	ไหน หรอ
-1.053374	ไหน อะ

\3-grams:
-0.3735807	ถูกใจ กี่คน </s>
-0.4985194	ถูกใจ กี่คน ละ	-1.616677
-0.1812309	ล่าสุด กี่คน </s>
-0.5698753	แชร์ กี่คน </s>
-1.067406	<s> ขอ ความคิดเห็น	-2.181194
-0.8913149	<s> ขอ จำนวน	-2.114001
-0.4141936	<s> ขอ ดู	-2.254279
-1.067406	<s> ขอ หนังสือ	-2.181194
-0.5902849	<s> ขอ เพจ	-1.917461
-0.06694679	ความคิดเห็น ของ โพสต์	-2.114001
-0.02802872	ถูกใจ ของ เพจ	-2.768151
-0.5378191	เพื่อน ของ เพื่อน
-0.2367891	เพื่อน ของ เรา	-0.1644632
-0.3802112	<s> คน ถูกใจ	-2.658887
-0.1203911	มี คน ถูกใจ	-0.4281854
-0.7224511	มี คน แชร์
-0.1249387	ขอ ความคิดเห็น ของ	-1.938156
-0.1249387	มี ความคิดเห็น อะไร
-0.06694679	ขอ จำนวน ถูกใจ	-1.754979
-0.3802112	ดู จำนวน ถูกใจ	-1.579134
-0.69897	เพื่อน ชอบ หนังสือ	-2.181194
-0.69897	เพื่อน ชอบ เพจ	-1.579134
-0.7067953	เรา ชอบ สิ	-2.181194
-0.5307041	เรา ชอบ เพจ	-1.754979
-0.5057665	ขอ ดู จำนวน	-0.2420992
-0.2047364	ขอ ดู เพื่อน	-1.917461
-0.30275	คน ถูกใจ กี่คน	-0.1913401
-0.7798712	คน ถูกใจ เพจ	-2.181194
-0.60378	คน ถูกใจ โพสต์	-2.114001
-0.02802872	จำนวน ถูกใจ ของ	-1.976631
-0.1249387	ล่าสุด ถูกใจ กี่คน
-0.1249387	ชอบ ที </s>
-0.06694679	<s> ที่ ไหน	-2.815677
-0.1249387	หนังสือ ที่ เพื่อน	-2.66951
-0.06694679	อะไร ที่ เพื่อน	-2.774928
-0.04139268	เช็คอิน ที่ ไหน	-0.1572609
-0.02020339	เพจ ที่ เรา	-2.762845
-0.3802112	ไหน ที่ เพื่อน	-2.66951
-0.06694679	อะไร นะ </s>
-0.2498775	อะไร บ้าง </s>
-0.04139268	<s> มี คน	0.0149976
-0.5698753	ล่าสุด มี ความคิดเห็น	-2.181194
-0.1918855	เพจ มี คน	-2.564755
-0.5898255	เพจ มี โพสต์	-2.181194
-0.02020339	กี่คน ละ </s>
-0.615025	โพสต์ ล่าสุด กี่คน	-0.2308135
-1.012965	โพสต์ ล่าสุด คน
-1.012965	โพสต์ ล่าสุด ถูกใจ	-2.181194
-0.711935	โพสต์ ล่าสุด มี	-0.1644632
-1.012965	โพสต์ ล่าสุด แชร์	-2.181194
-0.1249387	ชอบ สิ </s>
-0.1249387	เพจ สิ </s>
-0.1249387	เรา สิ </s>
-0.1249387	ขอ หนังสือ ที่	-2.181194
-0.1249387	ชอบ หนังสือ อะไร
-0.06694679	อะไร หรอ </s>
-0.1249387	เฟซ หรอ </s>
-0.1249387	กี่คน อะ </s>
-0.02020339	อะไร อะ </s>
-0.1249387	เฟซ อะ </s>
-0.06694679	<s> อะไร ที่	-2.114001
-0.5740313	เพจ อะไร นะ	-1.938156
-0.5740313	เพจ อะไร หรอ	-1.938156
-0.7939455	โพสต์ อะไร </s>
-0.7939455	โพสต์ อะไร บ้าง	-0.1171604
-0.7939455	โพสต์ อะไร อะ	-1.616677
-0.9700368	โพสต์ อะไร ไป
-0.06694679	ใช้ อะไร เล่น	-2.114001
-0.7224511	เพื่อน เช็คอิน ที่	-1.741861
-0.5698753	เรา เช็คอิน ที่	-1.741861
-0.2158902	<s> เพจ มี	-2.340165
-0.4589283	<s> เพจ โพสต์	-2.042522
-0.02020339	ขอ เพจ ที่	-1.917461
-0.4259687	ของ เพจ </s>
-0.60206	ของ เพจ สิ	-2.181194
-0.02802872	ชอบ เพจ อะไร	-0.3668846
-0.1249387	ถูกใจ เพจ กี่คน
-0.5336026	<s> เพื่อน ชอบ	-2.875441
-0.6585413	<s> เพื่อน เช็คอิน	-0.3849495
-0.8346326	<s> เพื่อน โพสต์	-2.181194
-0.6585413	<s> เพื่อน ใช้	-2.711315
-0.02020339	ดู เพื่อน ของ	-2.388623
-0.6374897	ที่ เพื่อน ชอบ
-0.6374897	ที่ เพื่อน เช็คอิน
-0.4613985	ที่ เพื่อน ใช้	-2.711315
-0.69897	เล่น เฟซ หรอ	-2.181194
-0.69897	เล่น เฟซ อะ	-2.181194
-0.6354837	<s> เรา ชอบ	-2.807508
-0.6354837	<s> เรา เช็คอิน	-0.3399626
-0.3344538	<s> เรา โพสต์	-1.917461
-0.5698753	ของ เรา สิ	-2.181194
-0.3364597	ที่ เรา ชอบ	-0.2057075
-0.6374897	ที่ เรา ถูกใจ
-0.06694679	อะไร เล่น เฟซ
-0.06694679	ใช้ เล่น เฟซ
-0.4259687	คน แชร์ กี่คน
-0.4259687	คน แชร์ โพสต์	-2.181194
-0.1249387	ล่าสุด แชร์ กี่คน
-0.009545318	<s> โพสต์ ล่าสุด	-3.18887
-0.06694679	ของ โพสต์ ล่าสุด
-0.06694679	ถูกใจ โพสต์ ล่าสุด	-2.838398
-0.1249387	มี โพสต์ อะไร
-0.04139268	เพจ โพสต์ อะไร	-0.2245928
-0.1249387	เพื่อน โพสต์ อะไร
-0.02020339	เรา โพสต์ อะไร	-0.1267611
-0.1249387	แชร์ โพสต์ ล่าสุด	-2.662552
-0.3617278	เพื่อน ใช้ อะไร	-2.114001
-0.3617278	เพื่อน ใช้ เล่น	-2.114001
-0.5509075	ที่ ไหน </s>
-0.5509075	ที่ ไหน ที่	-0.2420992

\4-grams:
-0.3012615	คน ถูกใจ กี่คน </s>
-0.4773456	คน ถูกใจ กี่คน ละ	2.357039
-0.09719437	โพสต์ ล่าสุด กี่คน </s>
-0.0007159596	ขอ ความคิดเห็น ของ โพสต์	2.357039
-0.0002865341	จำนวน ถูกใจ ของ เพจ	2.440792
-0.4773456	ดู เพื่อน ของ เพื่อน
-0.1763264	ดู เพื่อน ของ เรา	0.1644632
-0.1252933	<s> มี คน ถูกใจ	-0.1091987
-0.0002865341	เพจ มี คน ถูกใจ	-0.7784442
-0.0007159596	<s> ขอ ความคิดเห็น ของ	2.181194
-0.0007159596	ล่าสุด มี ความคิดเห็น อะไร
-0.0004774455	<s> ขอ จำนวน ถูกใจ	2.114001
-0.1765615	ขอ ดู จำนวน ถูกใจ	2.181194
-0.3013773	<s> เพื่อน ชอบ หนังสือ	2.181194
-0.3013773	<s> เพื่อน ชอบ เพจ	2.181194
-0.0004774455	<s> เรา ชอบ เพจ	2.114001
-0.3013773	ที่ เรา ชอบ สิ	2.181194
-0.4772708	<s> ขอ ดู จำนวน	0.2420992
-0.1762481	<s> ขอ ดู เพื่อน	1.917461
-0.0007159596	<s> คน ถูกใจ โพสต์	2.357039
-0.2042958	มี คน ถูกใจ กี่คน	0.4460166
-0.6022228	มี คน ถูกใจ เพจ	2.181194
-0.0004774455	ขอ จำนวน ถูกใจ ของ	2.335653
-0.0007159596	ดู จำนวน ถูกใจ ของ	2.578691
-0.0007159596	โพสต์ ล่าสุด ถูกใจ กี่คน
-0.0007159596	ขอ หนังสือ ที่ เพื่อน	2.181194
-0.0004774455	<s> อะไร ที่ เพื่อน	2.114001
-0.0007159596	เพื่อน เช็คอิน ที่ ไหน
-0.0007159596	เรา เช็คอิน ที่ ไหน	-0.301377
-0.0002387923	ขอ เพจ ที่ เรา	2.388623
-0.1765615	ที่ ไหน ที่ เพื่อน	2.181194
-0.0007159596	เพจ อะไร นะ </s>
-0.1765615	โพสต์ อะไร บ้าง </s>
-0.3013773	โพสต์ ล่าสุด มี ความคิดเห็น	2.181194
-0.1463302	<s> เพจ มี คน	1.976631
-0.5442572	<s> เพจ มี โพสต์	2.181194
-0.0004774455	ถูกใจ กี่คน ละ </s>
-0.6533548	<s> โพสต์ ล่าสุด คน
-0.6533548	<s> โพสต์ ล่าสุด ถูกใจ	2.181194
-0.4772708	<s> โพสต์ ล่าสุด มี	0.06659979
-0.6533548	<s> โพสต์ ล่าสุด แชร์	2.181194
-0.0004774455	ถูกใจ โพสต์ ล่าสุด กี่คน	0.4637512
-0.0007159596	แชร์ โพสต์ ล่าสุด กี่คน	0.09577441
-0.0007159596	เรา ชอบ สิ </s>
-0.0007159596	ของ เพจ สิ </s>
-0.0007159596	ของ เรา สิ </s>
-0.0007159596	<s> ขอ หนังสือ ที่	2.181194
-0.0007159596	เพื่อน ชอบ หนังสือ อะไร
-0.0007159596	เพจ อะไร หรอ </s>
-0.0007159596	เล่น เฟซ หรอ </s>
-0.0004774455	โพสต์ อะไร อะ </s>
-0.0007159596	เล่น เฟซ อะ </s>
-0.3982135	ชอบ เพจ อะไร นะ	2.181194
-0.3982135	ชอบ เพจ อะไร หรอ	2.181194
-0.3013773	เพจ โพสต์ อะไร บ้าง
-0.4773456	เรา โพสต์ อะไร ไป
-0.0004774455	เพื่อน ใช้ อะไร เล่น	2.114001
-0.1765615	<s> เพื่อน เช็คอิน ที่	2.181194
-0.1765615	<s> เรา เช็คอิน ที่	2.181194
-0.0002387923	<s> ขอ เพจ ที่	1.917461
-0.2221295	ถูกใจ ของ เพจ </s>
-0.3982135	ถูกใจ ของ เพจ สิ	2.181194
-0.0007159596	เพื่อน ชอบ เพจ อะไร
-0.0004774455	เรา ชอบ เพจ อะไร
-0.0007159596	คน ถูกใจ เพจ กี่คน
-0.0002387923	ขอ ดู เพื่อน ของ	2.388623
-0.0007159596	หนังสือ ที่ เพื่อน ชอบ
-0.0004774455	อะไร ที่ เพื่อน ใช้	2.114001
-0.0007159596	ไหน ที่ เพื่อน เช็คอิน
-0.3013773	เพื่อน ของ เรา สิ	2.181194
-0.1763264	เพจ ที่ เรา ชอบ	0.1644632
-0.4773456	เพจ ที่ เรา ถูกใจ
-0.0004774455	ใช้ อะไร เล่น เฟซ
-0.0004774455	เพื่อน ใช้ เล่น เฟซ
-0.0007159596	โพสต์ ล่าสุด แชร์ กี่คน
-0.0004774455	ความคิดเห็น ของ โพสต์ ล่าสุด
-0.0004774455	คน ถูกใจ โพสต์ ล่าสุด	2.114001
-0.0007159596	เพจ มี โพสต์ อะไร
-0.0003581363	<s> เพจ โพสต์ อะไร	0.1644632
-0.0007159596	<s> เพื่อน โพสต์ อะไร
-0.0002387923	<s> เรา โพสต์ อะไร	0.1099593
-0.0007159596	คน แชร์ โพสต์ ล่าสุด	2.181194
-0.0004774455	<s> เพื่อน ใช้ อะไร	2.114001
-0.0004774455	ที่ เพื่อน ใช้ เล่น	2.114001
-0.0004774455	<s> ที่ ไหน ที่	0.2420992
-0.3013773	เช็คอิน ที่ ไหน </s>

\5-grams:
-0.5740313	มี คน ถูกใจ กี่คน </s>
-0.5740313	มี คน ถูกใจ กี่คน ละ
-0.3802112	ถูกใจ โพสต์ ล่าสุด กี่คน </s>
-0.1249387	แชร์ โพสต์ ล่าสุด กี่คน </s>
-0.1249387	<s> ขอ ความคิดเห็น ของ โพสต์
-0.06694679	ขอ จำนวน ถูกใจ ของ เพจ
-0.1249387	ดู จำนวน ถูกใจ ของ เพจ
-0.5378191	ขอ ดู เพื่อน ของ เพื่อน
-0.2367891	ขอ ดู เพื่อน ของ เรา
-0.02802872	<s> เพจ มี คน ถูกใจ
-0.1249387	โพสต์ ล่าสุด มี ความคิดเห็น อะไร
-0.3802112	<s> ขอ ดู จำนวน ถูกใจ
-0.5698753	เพจ ที่ เรา ชอบ สิ
-0.3802112	<s> มี คน ถูกใจ เพจ
-0.02802872	เพจ มี คน ถูกใจ กี่คน
-0.06694679	<s> ขอ จำนวน ถูกใจ ของ
-0.1249387	ขอ ดู จำนวน ถูกใจ ของ
-0.1249387	<s> โพสต์ ล่าสุด ถูกใจ กี่คน
-0.1249387	<s> ขอ หนังสือ ที่ เพื่อน
-0.1249387	<s> เพื่อน เช็คอิน ที่ ไหน
-0.1249387	<s> เรา เช็คอิน ที่ ไหน
-0.02020339	<s> ขอ เพจ ที่ เรา
-0.3802112	<s> ที่ ไหน ที่ เพื่อน
-0.1249387	ชอบ เพจ อะไร นะ </s>
-0.3802112	<s> โพสต์ ล่าสุด มี ความคิดเห็น
-0.1249387	คน ถูกใจ กี่คน ละ </s>
-0.06694679	คน ถูกใจ โพสต์ ล่าสุด กี่คน
-0.1249387	คน แชร์ โพสต์ ล่าสุด กี่คน
-0.1249387	ที่ เรา ชอบ สิ </s>
-0.1249387	ถูกใจ ของ เพจ สิ </s>
-0.1249387	เพื่อน ของ เรา สิ </s>
-0.1249387	<s> เพื่อน ชอบ หนังสือ อะไร
-0.1249387	ชอบ เพจ อะไร หรอ </s>
-0.5698753	<s> เพจ โพสต์ อะไร บ้าง
-0.8507019	<s> เรา โพสต์ อะไร ไป
-0.06694679	<s> เพื่อน ใช้ อะไร เล่น
-0.3061696	จำนวน ถูกใจ ของ เพจ </s>
-0.4822609	จำนวน ถูกใจ ของ เพจ สิ
-0.1249387	<s> เพื่อน ชอบ เพจ อะไร
-0.06694679	<s> เรา ชอบ เพจ อะไร
-0.1249387	มี คน ถูกใจ เพจ กี่คน
-0.02020339	<s> ขอ ดู เพื่อน ของ
-0.1249387	ขอ หนังสือ ที่ เพื่อน ชอบ
-0.06694679	<s> อะไร ที่ เพื่อน ใช้
-0.1249387	ที่ ไหน ที่ เพื่อน เช็คอิน
-0.5698753	ดู เพื่อน ของ เรา สิ
-0.2367891	ขอ เพจ ที่ เรา ชอบ
-0.5378191	ขอ เพจ ที่ เรา ถูกใจ
-0.06694679	เพื่อน ใช้ อะไร เล่น เฟซ
-0.06694679	ที่ เพื่อน ใช้ เล่น เฟซ
-0.1249387	<s> โพสต์ ล่าสุด แชร์ กี่คน
-0.1249387	ขอ ความคิดเห็น ของ โพสต์ ล่าสุด
-0.1249387	<s> คน ถูกใจ โพสต์ ล่าสุด
-0.1249387	<s> เพจ มี โพสต์ อะไร
-0.06694679	อะไร ที่ เพื่อน ใช้ เล่น
-0.1249387	เรา เช็คอิน ที่ ไหน </s>

\end\
