
\data\
ngram 1=35
ngram 2=209
ngram 3=208
ngram 4=188
ngram 5=155

\1-grams:
-0.9234832	</s>
-99	<s>	-1.547009
-1.435367	กี่คน	-1.687832
-2.037426	ขอ	-1.180373
-1.435367	ของ	-1.005385
-1.560305	คน	-1.580413
-1.560305	ความคิดเห็น	-0.7071274
-1.736397	จำนวน	-0.8557802
-1.736397	ชอบ	-0.8211107
-2.037426	ดู	-1.170387
-1.435367	ถูกใจ	-0.9939839
-1.736397	ที	-2.319414
-1.192328	ที่	-1.592662
-1.736397	นะ	-0.9862374
-1.79439	บ้าง	-2.319414
-1.560305	มี	-1.000478
-1.736397	ละ	-2.319414
-1.560305	ล่าสุด	-0.4737879
-1.736397	สิ	-2.319414
-1.736397	หนังสือ	-0.5423573
-1.861334	หน่อย	-2.319414
-1.560305	หรอ	-1.287268
-1.463395	อะ	-2.319415
-1.192328	อะไร	-0.8940437
-1.736397	เช็คอิน	-0.3367108
-1.338457	เพจ	-0.9217511
-1.435367	เพื่อน	-1.122312
-2.037426	เฟซ	-0.2526081
-1.560305	เรา	-0.9166792
-1.736397	เล่น	-1.338421
-1.560305	แชร์	-0.644267
-1.134336	โพสต์	-2.178313
-2.037426	ใช้	-0.8471808
-2.037426	ไป	-0.1035003
-1.736397	ไหน	-0.5160924

\2-grams:
-0.5680799	<s> ขอ	-7.152557e-07
-1.433381	<s> คน	0.3115302
-1.910502	<s> ความคิดเห็น
-1.433381	<s> ที่	-0.6545815
-1.308442	<s> มี	-0.6292135
-1.433381	<s> อะไร	-0.8029981
-0.8691098	<s> เพจ	-1.171685
-0.8313212	<s> เพื่อน	-0.4385736
-0.8313212	<s> เรา	-0.6298982
-0.95626	<s> โพสต์	-1.320689
-0.2442003	กี่คน </s>
-1.195417	กี่คน ที	-0.02393365
-1.25341	กี่คน บ้าง	-0.02393365
-1.195417	กี่คน ละ	-0.02393365
-1.195417	กี่คน สิ	-0.02393365
-1.320354	กี่คน หน่อย	-0.02393365
-0.9224144	กี่คน อะ	-0.02393365
-1.067406	ขอ ความคิดเห็น	-0.3061095
-0.891315	ขอ จำนวน	-0.2850029
-0.4141936	ขอ ดู	0
-1.067406	ขอ หนังสือ	-0.39794
-0.5902848	ขอ เพจ	-1.251907
-0.4344569	ของ เพจ	-0.7940908
-0.9115781	ของ เพื่อน	-0.5705321
-0.6105481	ของ เรา	-0.3031484
-0.7354869	ของ โพสต์	-0.5030299
-0.1455114	คน ถูกใจ	-0.657678
-0.5848442	คน แชร์	-0.09167534
-0.3061696	ความคิดเห็น ของ	-0.7568572
-0.4822608	ความคิดเห็น อะไร
-0.1398791	จำนวน ถูกใจ	-1.089165
-0.8388491	จำนวน แชร์
-0.861218	ชอบ </s>
-1.373102	ชอบ ที	0.5028715
-1.431095	ชอบ บ้าง	0.5028739
-1.373102	ชอบ ละ	0.5028715
-1.373102	ชอบ สิ	0.5028715
-0.861218	ชอบ หนังสือ	-0.39794
-1.498039	ชอบ หน่อย	0.5028739
-1.100099	ชอบ อะ	0.5028763
-0.4632781	ชอบ เพจ	-1.130061
-0.5057664	ดู จำนวน	0.3260121
-0.2047365	ดู เพื่อน	-1.240012
-0.4293485	ถูกใจ กี่คน	0.7035189
-0.6334683	ถูกใจ ของ	-1.005014
-1.844322	ถูกใจ ที	0.942207
-1.902315	ถูกใจ บ้าง	0.9422078
-1.844322	ถูกใจ ละ	0.942207
-1.844322	ถูกใจ สิ	0.942207
-1.969259	ถูกใจ หน่อย	0.9422078
-1.571319	ถูกใจ อะ	0.9422085
-1.031408	ถูกใจ เพจ	-0.5739331
-0.8553172	ถูกใจ โพสต์	-0.5030299
-0.01258326	ที </s>
-2.416562	ที ที
-2.474554	ที บ้าง
-2.416562	ที ละ
-2.416562	ที สิ
-2.541498	ที หน่อย
-2.143559	ที อะ
-0.5076246	ที่ เพื่อน	-0.3204542
-0.5076246	ที่ เรา	-0.3150935
-0.4496326	ที่ ไหน	0.06010759
-0.04139268	นะ </s>
-0.01258326	บ้าง </s>
-2.416562	บ้าง ที
-2.474555	บ้าง บ้าง
-2.416562	บ้าง ละ
-2.416562	บ้าง สิ
-2.541499	บ้าง หน่อย
-2.143559	บ้าง อะ
-0.2126081	มี คน	0.3304858
-0.9115781	มี ความคิดเห็น	-0.4285159
-1.212608	มี อะไร
-0.9115781	มี โพสต์	-0.3432965
-0.01258326	ละ </s>
-2.416562	ละ ที
-2.474554	ละ บ้าง
-2.416562	ละ ละ
-2.416562	ละ สิ
-2.541498	ละ หน่อย
-2.143559	ละ อะ
-1.365904	ล่าสุด </s>
-0.6669337	ล่าสุด กี่คน	-0.1005888
-1.064874	ล่าสุด คน
-1.064874	ล่าสุด ถูกใจ	-0.3999553
-1.877788	ล่าสุด ที	0.9422085
-1.365904	ล่าสุด ที่
-1.935781	ล่าสุด บ้าง	0.9422078
-0.7638437	ล่าสุด มี	-0.07942697
-1.877788	ล่าสุด ละ	0.9422085
-1.877788	ล่าสุด สิ	0.9422085
-2.002725	ล่าสุด หน่อย	0.9422078
-1.604786	ล่าสุด อะ	0.942207
-1.064874	ล่าสุด แชร์	-0.3337862
-0.01258326	สิ </s>
-2.416562	สิ ที
-2.474554	สิ บ้าง
-2.416562	สิ ละ
-2.416562	สิ สิ
-2.541498	สิ หน่อย
-2.143559	สิ อะ
-0.4259686	หนังสือ ที่	-0.4404529
-0.4259686	หนังสือ อะไร
-0.01258326	หน่อย </s>
-2.416562	หน่อย ที
-2.474555	หน่อย บ้าง
-2.416562	หน่อย ละ
-2.416562	หน่อย สิ
-2.541499	หน่อย หน่อย
-2.143559	หน่อย อะ
-0.02020335	หรอ </s>
-0.01258326	อะ </s>
-2.416562	อะ ที
-2.474554	อะ บ้าง
-2.416562	อะ ละ
-2.416562	อะ สิ
-2.541499	อะ หน่อย
-2.143559	อะ อะ
-0.812531	อะไร </s>
-1.324415	อะไร ที	0.7126727
-1.03438	อะไร ที่	-0.6834912
-1.03438	อะไร นะ	0.1962944
-1.382408	อะไร บ้าง	0.7126713
-1.324415	อะไร ละ	0.7126727
-1.511501	อะไร ล่าสุด
-1.324415	อะไร สิ	0.7126727
-1.449352	อะไร หน่อย	0.7126713
-1.03438	อะไร หรอ	0.4973251
-1.051413	อะไร อะ	0.7126713
-1.03438	อะไร เล่น	0.4973251
-1.210471	อะไร ไป
-0.8081145	เช็คอิน </s>
-1.922058	เช็คอิน ที
-0.5070846	เช็คอิน ที่	-0.850877
-1.980051	เช็คอิน บ้าง
-1.922058	เช็คอิน ละ
-1.109144	เช็คอิน ล่าสุด
-1.922058	เช็คอิน สิ
-2.046995	เช็คอิน หน่อย
-1.649055	เช็คอิน อะ
-1.109144	เช็คอิน ไหน
-1.026559	เพจ </s>
-1.20265	เพจ กี่คน
-1.839473	เพจ ที	0.699168
-0.7255291	เพจ ที่	-1.180816
-1.897466	เพจ บ้าง	0.6991695
-0.6585823	เพจ มี	-0.4224523
-1.839473	เพจ ละ	0.699168
-1.839473	เพจ สิ	0.699168
-1.96441	เพจ หน่อย	0.6991695
-1.56647	เพจ อะ	0.6991709
-0.8047103	เพจ อะไร	-0.2422691
-0.9016203	เพจ โพสต์	-0.7826303
-0.6776372	เพื่อน ของ	-0.6855003
-0.6776372	เพื่อน ชอบ	0.0636383
-1.967672	เพื่อน ที	0.942207
-2.025665	เพื่อน บ้าง	0.9422078
-1.967672	เพื่อน ละ	0.942207
-1.967672	เพื่อน สิ	0.942207
-2.092609	เพื่อน หน่อย	0.9422078
-1.694669	เพื่อน อะ	0.9422085
-0.7568184	เพื่อน เช็คอิน	0.07061791
-1.154758	เพื่อน โพสต์	-0.3432965
-0.6776372	เพื่อน ใช้	0
-1	เฟซ </s>
-1.511884	เฟซ ที	0.9422085
-1	เฟซ นะ
-1.569877	เฟซ บ้าง	0.9422078
-1.511884	เฟซ ละ	0.9422085
-1.511884	เฟซ สิ	0.9422085
-1.636821	เฟซ หน่อย	0.9422078
-0.6989701	เฟซ หรอ	0.7403634
-1.238882	เฟซ อะ	0.942207
-1.395336	เรา </s>
-0.5502383	เรา ชอบ	-0.09081557
-1.094306	เรา ถูกใจ	-0.5596562
-1.731129	เรา ที	0.6991709
-1.789122	เรา บ้าง	0.6991695
-1.731129	เรา ละ	0.6991709
-1.731129	เรา สิ	0.6991709
-1.856066	เรา หน่อย	0.6991695
-1.458127	เรา อะ	0.699168
-0.7932764	เรา เช็คอิน	0.025631
-0.6171852	เรา โพสต์	-1.08366
-0.02020335	เล่น เฟซ	0
-0.3364598	แชร์ กี่คน	1.20412
-0.9385196	แชร์ ของ
-0.6374897	แชร์ โพสต์	-0.2599917
-0.2635369	โพสต์ ล่าสุด	-0.3072199
-0.3478578	โพสต์ อะไร	-0.1182005
-0.3617277	ใช้ อะไร	-0.8029981
-0.3617277	ใช้ เล่น	0.4973251
-0.6989701	ไป </s>
-1.511884	ไป ที
-1.569877	ไป บ้าง
-1.511884	ไป ละ
-1.511884	ไป สิ
-1.636821	ไป หน่อย
-1.238882	ไป อะ
-0.451314	ไหน </s>
-1.866288	ไหน ที
-0.5762527	ไหน ที่	-0.07247619
-1.924281	ไหน บ้าง
-1.866288	ไหน ละ
-1.866288	ไหน สิ
-1.991225	ไหน หน่อย
-1.053374	ไหน หรอ
-1.593285	ไหน อะ

\3-grams:
-0.3367456	ถูกใจ กี่คน </s>
-1.149659	ถูกใจ กี่คน ที	-1.586544
-1.207652	ถูกใจ กี่คน บ้าง	-1.586885
-1.149659	ถูกใจ กี่คน ละ	-1.586544
-1.149659	ถูกใจ กี่คน สิ	-1.586544
-1.274596	ถูกใจ กี่คน หน่อย	-1.586885
-0.8766571	ถูกใจ กี่คน อะ	-1.587225
-0.181231	ล่าสุด กี่คน </s>
-0.4259686	แชร์ กี่คน </s>
-1.238883	แชร์ กี่คน ที	-1.286347
-1.296875	แชร์ กี่คน บ้าง	-1.286347
-1.238883	แชร์ กี่คน ละ	-1.286347
-1.238883	แชร์ กี่คน สิ	-1.286347
-1.363819	แชร์ กี่คน หน่อย	-1.286347
-0.9658799	แชร์ กี่คน อะ	-1.286347
-1.067406	<s> ขอ ความคิดเห็น	-2.252488
-0.891315	<s> ขอ จำนวน	-2.185355
-0.4141936	<s> ขอ ดู	-2.327845
-1.067406	<s> ขอ หนังสือ	-2.252488
-0.5902848	<s> ขอ เพจ	-1.988703
-0.06694674	ความคิดเห็น ของ โพสต์	-2.185227
-0.02802873	ถูกใจ ของ เพจ	-2.38303
-0.5378191	เพื่อน ของ เพื่อน	-2.252498
-0.2367892	เพื่อน ของ เรา	-0.2421387
-0.3802111	<s> คน ถูกใจ	-2.730181
-0.1203911	มี คน ถูกใจ	-0.4283756
-0.7224511	มี คน แชร์
-0.1249387	ขอ ความคิดเห็น ของ	-2.00945
-0.1249387	มี ความคิดเห็น อะไร
-0.06694674	ขอ จำนวน ถูกใจ	-1.826334
-0.3802111	ดู จำนวน ถูกใจ	-1.650429
-0.6989701	เพื่อน ชอบ หนังสือ	-2.252488
-0.6989701	เพื่อน ชอบ เพจ	-1.650429
-1.274312	เรา ชอบ ที	-1.989313
-1.332305	เรา ชอบ บ้าง	-1.98906
-1.274312	เรา ชอบ ละ	-1.989313
-1.274312	เรา ชอบ สิ	-1.989313
-1.399249	เรา ชอบ หน่อย	-1.98906
-1.00131	เรา ชอบ อะ	-1.988806
-0.4613986	เรา ชอบ เพจ	-1.826334
-0.5057664	ขอ ดู จำนวน	-0.2422433
-0.2047365	ขอ ดู เพื่อน	-1.988703
-0.30275	คน ถูกใจ กี่คน	-2.244249
-0.7798713	คน ถูกใจ เพจ	-2.252488
-0.6037799	คน ถูกใจ โพสต์	-2.185355
-0.02802873	จำนวน ถูกใจ ของ	-2.047846
-0.1249387	ล่าสุด ถูกใจ กี่คน
-0.9378524	เรา ถูกใจ ที	-2.252488
-0.9958453	เรา ถูกใจ บ้าง	-2.252488
-0.9378524	เรา ถูกใจ ละ	-2.252488
-0.9378524	เรา ถูกใจ สิ	-2.252488
-1.062789	เรา ถูกใจ หน่อย	-2.252488
-0.6648502	เรา ถูกใจ อะ	-2.252489
-0.01189923	กี่คน ที </s>
-0.04139233	ชอบ ที </s>
-0.1249385	ถูกใจ ที </s>
-0.124939	ล่าสุด ที </s>
-0.06923866	อะไร ที </s>
-0.06694651	เพจ ที </s>
-0.1249385	เพื่อน ที </s>
-0.124939	เฟซ ที </s>
-0.06694698	เรา ที </s>
-0.06694674	<s> ที่ ไหน	-2.887031
-0.1249387	หนังสือ ที่ เพื่อน	-2.740805
-0.06694674	อะไร ที่ เพื่อน	-2.846282
-0.04139256	เช็คอิน ที่ ไหน	-0.1573152
-0.02020335	เพจ ที่ เรา	-2.836543
-0.3802111	ไหน ที่ เพื่อน	-2.740805
-0.06694674	อะไร นะ </s>
-0.01189923	กี่คน บ้าง </s>
-0.04139256	ชอบ บ้าง </s>
-0.1249387	ถูกใจ บ้าง </s>
-0.1249387	ล่าสุด บ้าง </s>
-0.06923842	อะไร บ้าง </s>
-0.06694674	เพจ บ้าง </s>
-0.1249387	เพื่อน บ้าง </s>
-0.1249387	เฟซ บ้าง </s>
-0.06694674	เรา บ้าง </s>
-0.04139256	<s> มี คน	0.01483494
-0.5698752	ล่าสุด มี ความคิดเห็น	-2.252488
-0.1918855	เพจ มี คน	-2.63597
-0.5898256	เพจ มี โพสต์	-2.252488
-0.01189923	กี่คน ละ </s>
-0.04139233	ชอบ ละ </s>
-0.1249385	ถูกใจ ละ </s>
-0.124939	ล่าสุด ละ </s>
-0.06923866	อะไร ละ </s>
-0.06694651	เพจ ละ </s>
-0.1249385	เพื่อน ละ </s>
-0.124939	เฟซ ละ </s>
-0.06694698	เรา ละ </s>
-0.5929971	โพสต์ ล่าสุด กี่คน	-0.2309865
-0.9909368	โพสต์ ล่าสุด คน
-0.9909368	โพสต์ ล่าสุด ถูกใจ	-2.252488
-1.803851	โพสต์ ล่าสุด ที	-2.252489
-1.861843	โพสต์ ล่าสุด บ้าง	-2.252488
-0.6899071	โพสต์ ล่าสุด มี	-0.1645175
-1.803851	โพสต์ ล่าสุด ละ	-2.252489
-1.803851	โพสต์ ล่าสุด สิ	-2.252489
-1.928787	โพสต์ ล่าสุด หน่อย	-2.252488
-1.530848	โพสต์ ล่าสุด อะ	-2.252488
-0.9909368	โพสต์ ล่าสุด แชร์	-2.252488
-0.01189923	กี่คน สิ </s>
-0.04139233	ชอบ สิ </s>
-0.1249385	ถูกใจ สิ </s>
-0.124939	ล่าสุด สิ </s>
-0.06923866	อะไร สิ </s>
-0.06694651	เพจ สิ </s>
-0.1249385	เพื่อน สิ </s>
-0.124939	เฟซ สิ </s>
-0.06694698	เรา สิ </s>
-0.1249387	ขอ หนังสือ ที่	-2.252488
-0.1249387	ชอบ หนังสือ อะไร
-0.01189923	กี่คน หน่อย </s>
-0.04139256	ชอบ หน่อย </s>
-0.1249387	ถูกใจ หน่อย </s>
-0.1249387	ล่าสุด หน่อย </s>
-0.06923842	อะไร หน่อย </s>
-0.06694674	เพจ หน่อย </s>
-0.1249387	เพื่อน หน่อย </s>
-0.1249387	เฟซ หน่อย </s>
-0.06694674	เรา หน่อย </s>
-0.06694674	อะไร หรอ </s>
-0.1249387	เฟซ หรอ </s>
-0.01189923	กี่คน อะ </s>
-0.0413928	ชอบ อะ </s>
-0.124939	ถูกใจ อะ </s>
-0.1249385	ล่าสุด อะ </s>
-0.06923842	อะไร อะ </s>
-0.06694698	เพจ อะ </s>
-0.124939	เพื่อน อะ </s>
-0.1249385	เฟซ อะ </s>
-0.06694651	เรา อะ </s>
-0.06694674	<s> อะไร ที่	-2.185355
-0.5740314	เพจ อะไร นะ	-2.00945
-0.5740314	เพจ อะไร หรอ	-2.00945
-0.7600874	โพสต์ อะไร </s>
-1.271971	โพสต์ อะไร ที	0.05444837
-1.329964	โพสต์ อะไร บ้าง	0.05444974
-1.271971	โพสต์ อะไร ละ	0.05444837
-1.271971	โพสต์ อะไร สิ	0.05444837
-1.396908	โพสต์ อะไร หน่อย	0.05444974
-0.9989687	โพสต์ อะไร อะ	0.05444974
-0.9361786	โพสต์ อะไร ไป
-0.06694674	ใช้ อะไร เล่น	-2.185355
-0.7224512	เพื่อน เช็คอิน ที่	-1.813155
-0.5698752	เรา เช็คอิน ที่	-1.813155
-0.2158902	<s> เพจ มี	-2.414153
-0.4589283	<s> เพจ โพสต์	-2.113692
-0.02020335	ขอ เพจ ที่	-1.988703
-0.3617277	ของ เพจ </s>
-1.174642	ของ เพจ ที	-2.185609
-1.232634	ของ เพจ บ้าง	-2.185355
-1.174642	ของ เพจ ละ	-2.185609
-1.174642	ของ เพจ สิ	-2.185609
-1.299578	ของ เพจ หน่อย	-2.185355
-0.901639	ของ เพจ อะ	-2.185101
-0.02802873	ชอบ เพจ อะไร	-0.3670572
-0.1249387	ถูกใจ เพจ กี่คน
-0.5336025	<s> เพื่อน ชอบ	-2.949301
-0.6585414	<s> เพื่อน เช็คอิน	-0.3850938
-0.8346326	<s> เพื่อน โพสต์	-2.252488
-0.6585414	<s> เพื่อน ใช้	-2.782669
-0.9378526	ของ เพื่อน ที	-2.252488
-0.9958453	ของ เพื่อน บ้าง	-2.252488
-0.9378526	ของ เพื่อน ละ	-2.252488
-0.9378526	ของ เพื่อน สิ	-2.252488
-1.062789	ของ เพื่อน หน่อย	-2.252488
-0.66485	ของ เพื่อน อะ	-2.252489
-0.02020335	ดู เพื่อน ของ	-2.462322
-0.6374898	ที่ เพื่อน ชอบ
-0.6374898	ที่ เพื่อน เช็คอิน
-0.4613986	ที่ เพื่อน ใช้	-2.782669
-1.511884	เล่น เฟซ ที	-2.252489
-1.569877	เล่น เฟซ บ้าง	-2.252488
-1.511884	เล่น เฟซ ละ	-2.252489
-1.511884	เล่น เฟซ สิ	-2.252489
-1.636821	เล่น เฟซ หน่อย	-2.252488
-0.6989701	เล่น เฟซ หรอ	-2.252488
-1.238882	เล่น เฟซ อะ	-2.252488
-0.6354837	<s> เรา ชอบ	-2.846282
-0.6354837	<s> เรา เช็คอิน	-0.3401069
-0.3344538	<s> เรา โพสต์	-1.988703
-1.062791	ของ เรา ที	-2.185612
-1.120784	ของ เรา บ้าง	-2.185355
-1.062791	ของ เรา ละ	-2.185612
-1.062791	ของ เรา สิ	-2.185612
-1.187728	ของ เรา หน่อย	-2.185355
-0.7897887	ของ เรา อะ	-2.185098
-0.3364596	ที่ เรา ชอบ	-0.4169893
-0.6374898	ที่ เรา ถูกใจ	-2.252469
-0.06694674	อะไร เล่น เฟซ
-0.06694674	ใช้ เล่น เฟซ
-0.4259686	คน แชร์ กี่คน
-0.4259686	คน แชร์ โพสต์	-2.252488
-0.1249387	ล่าสุด แชร์ กี่คน
-0.009545326	<s> โพสต์ ล่าสุด	-3.246298
-0.06694674	ของ โพสต์ ล่าสุด	-0.4295504
-0.06694674	ถูกใจ โพสต์ ล่าสุด	-2.902451
-0.1249387	มี โพสต์ อะไร
-0.04139256	เพจ โพสต์ อะไร	-0.4157476
-0.1249387	เพื่อน โพสต์ อะไร
-0.02020335	เรา โพสต์ อะไร	-0.2064601
-0.1249387	แชร์ โพสต์ ล่าสุด	-2.726546
-0.3617277	เพื่อน ใช้ อะไร	-2.185355
-0.3617277	เพื่อน ใช้ เล่น	-2.185355
-0.5509076	ที่ ไหน </s>
-0.5509076	ที่ ไหน ที่	-0.2422433

\4-grams:
-0.3012254	คน ถูกใจ กี่คน </s>
-1.114139	คน ถูกใจ กี่คน ที	2.309647
-1.172132	คน ถูกใจ กี่คน บ้าง	2.309988
-1.114139	คน ถูกใจ กี่คน ละ	2.309647
-1.114139	คน ถูกใจ กี่คน สิ	2.309647
-1.239076	คน ถูกใจ กี่คน หน่อย	2.309988
-0.8411369	คน ถูกใจ กี่คน อะ	2.310328
-0.09715104	โพสต์ ล่าสุด กี่คน </s>
-0.0006074905	ขอ ความคิดเห็น ของ โพสต์	2.428266
-0.000243187	จำนวน ถูกใจ ของ เพจ	2.514309
-0.4773095	ดู เพื่อน ของ เพื่อน	2.252498
-0.1762903	ดู เพื่อน ของ เรา	0.2421387
-0.1252389	<s> มี คน ถูกใจ	-0.1091897
-0.000243187	เพจ มี คน ถูกใจ	-0.7783988
-0.0006074905	<s> ขอ ความคิดเห็น ของ	2.252488
-0.0006074905	ล่าสุด มี ความคิดเห็น อะไร
-0.0004050732	<s> ขอ จำนวน ถูกใจ	2.185355
-0.1764891	ขอ ดู จำนวน ถูกใจ	2.252488
-0.3013229	<s> เพื่อน ชอบ หนังสือ	2.252488
-0.3013229	<s> เพื่อน ชอบ เพจ	2.252488
-0.0004050732	<s> เรา ชอบ เพจ	2.185355
-0.9381528	ที่ เรา ชอบ ที	2.185611
-0.9961455	ที่ เรา ชอบ บ้าง	2.185355
-0.9381528	ที่ เรา ชอบ ละ	2.185611
-0.9381528	ที่ เรา ชอบ สิ	2.185611
-1.06309	ที่ เรา ชอบ หน่อย	2.185355
-0.6651502	ที่ เรา ชอบ อะ	2.1851
-0.4772468	<s> ขอ ดู จำนวน	0.2422434
-0.176224	<s> ขอ ดู เพื่อน	1.988703
-0.0006074905	<s> คน ถูกใจ โพสต์	2.428393
-0.2042686	มี คน ถูกใจ กี่คน	2.593582
-0.6021956	มี คน ถูกใจ เพจ	2.252488
-0.0004050732	ขอ จำนวน ถูกใจ ของ	2.406867
-0.0006074905	ดู จำนวน ถูกใจ ของ	2.649905
-0.0006074905	โพสต์ ล่าสุด ถูกใจ กี่คน
-0.8135214	ที่ เรา ถูกใจ ที	2.252488
-0.8715141	ที่ เรา ถูกใจ บ้าง	2.252488
-0.8135214	ที่ เรา ถูกใจ ละ	2.252488
-0.8135214	ที่ เรา ถูกใจ สิ	2.252488
-0.9384582	ที่ เรา ถูกใจ หน่อย	2.252488
-0.5405188	ที่ เรา ถูกใจ อะ	2.252488
-0.0003042221	ถูกใจ กี่คน ที </s>
-0.0006074905	แชร์ กี่คน ที </s>
-0.0004048347	เรา ชอบ ที </s>
-0.0006074905	เรา ถูกใจ ที </s>
-0.0006074905	โพสต์ ล่าสุด ที </s>
-0.07938242	โพสต์ อะไร ที </s>
-0.0004048347	ของ เพจ ที </s>
-0.0006074905	ของ เพื่อน ที </s>
-0.0006074905	เล่น เฟซ ที </s>
-0.0004048347	ของ เรา ที </s>
-0.0006074905	ขอ หนังสือ ที่ เพื่อน	2.252488
-0.0004050732	<s> อะไร ที่ เพื่อน	2.185355
-0.0006074905	เพื่อน เช็คอิน ที่ ไหน
-0.0006074905	เรา เช็คอิน ที่ ไหน	-0.3013228
-0.0002026558	ขอ เพจ ที่ เรา	2.462321
-0.1764891	ที่ ไหน ที่ เพื่อน	2.252488
-0.0006074905	เพจ อะไร นะ </s>
-0.0003039837	ถูกใจ กี่คน บ้าง </s>
-0.0006074905	แชร์ กี่คน บ้าง </s>
-0.0004050732	เรา ชอบ บ้าง </s>
-0.0006074905	เรา ถูกใจ บ้าง </s>
-0.0006074905	โพสต์ ล่าสุด บ้าง </s>
-0.07938242	โพสต์ อะไร บ้าง </s>
-0.0004050732	ของ เพจ บ้าง </s>
-0.0006074905	ของ เพื่อน บ้าง </s>
-0.0006074905	เล่น เฟซ บ้าง </s>
-0.0004050732	ของ เรา บ้าง </s>
-0.3013229	โพสต์ ล่าสุด มี ความคิดเห็น	2.252488
-0.1462991	<s> เพจ มี คน	2.047846
-0.5442262	<s> เพจ มี โพสต์	2.252488
-0.0003042221	ถูกใจ กี่คน ละ </s>
-0.0006074905	แชร์ กี่คน ละ </s>
-0.0004048347	เรา ชอบ ละ </s>
-0.0006074905	เรา ถูกใจ ละ </s>
-0.0006074905	โพสต์ ล่าสุด ละ </s>
-0.07938242	โพสต์ อะไร ละ </s>
-0.0004048347	ของ เพจ ละ </s>
-0.0006074905	ของ เพื่อน ละ </s>
-0.0006074905	เล่น เฟซ ละ </s>
-0.0004048347	ของ เรา ละ </s>
-0.6533307	<s> โพสต์ ล่าสุด คน
-0.6533307	<s> โพสต์ ล่าสุด ถูกใจ	2.252488
-0.4772466	<s> โพสต์ ล่าสุด มี	0.06665406
-0.6533307	<s> โพสต์ ล่าสุด แชร์	2.252488
-0.9894028	ของ โพสต์ ล่าสุด ที	2.252488
-1.047396	ของ โพสต์ ล่าสุด บ้าง	2.252488
-0.9894028	ของ โพสต์ ล่าสุด ละ	2.252488
-0.9894028	ของ โพสต์ ล่าสุด สิ	2.252488
-1.11434	ของ โพสต์ ล่าสุด หน่อย	2.252488
-0.7164006	ของ โพสต์ ล่าสุด อะ	2.252488
-0.0004050732	ถูกใจ โพสต์ ล่าสุด กี่คน	0.4639239
-0.0006074905	แชร์ โพสต์ ล่าสุด กี่คน	0.09594721
-0.0003042221	ถูกใจ กี่คน สิ </s>
-0.0006074905	แชร์ กี่คน สิ </s>
-0.0004048347	เรา ชอบ สิ </s>
-0.0006074905	เรา ถูกใจ สิ </s>
-0.0006074905	โพสต์ ล่าสุด สิ </s>
-0.07938242	โพสต์ อะไร สิ </s>
-0.0004048347	ของ เพจ สิ </s>
-0.0006074905	ของ เพื่อน สิ </s>
-0.0006074905	เล่น เฟซ สิ </s>
-0.0004048347	ของ เรา สิ </s>
-0.0006074905	<s> ขอ หนังสือ ที่	2.252488
-0.0006074905	เพื่อน ชอบ หนังสือ อะไร
-0.0003039837	ถูกใจ กี่คน หน่อย </s>
-0.0006074905	แชร์ กี่คน หน่อย </s>
-0.0004050732	เรา ชอบ หน่อย </s>
-0.0006074905	เรา ถูกใจ หน่อย </s>
-0.0006074905	โพสต์ ล่าสุด หน่อย </s>
-0.07938242	โพสต์ อะไร หน่อย </s>
-0.0004050732	ของ เพจ หน่อย </s>
-0.0006074905	ของ เพื่อน หน่อย </s>
-0.0006074905	เล่น เฟซ หน่อย </s>
-0.0004050732	ของ เรา หน่อย </s>
-0.0006074905	เพจ อะไร หรอ </s>
-0.0006074905	เล่น เฟซ หรอ </s>
-0.0003037453	ถูกใจ กี่คน อะ </s>
-0.0006074905	แชร์ กี่คน อะ </s>
-0.0004053116	เรา ชอบ อะ </s>
-0.0006074905	เรา ถูกใจ อะ </s>
-0.0006074905	โพสต์ ล่าสุด อะ </s>
-0.07938242	โพสต์ อะไร อะ </s>
-0.0004053116	ของ เพจ อะ </s>
-0.0006074905	ของ เพื่อน อะ </s>
-0.0006074905	เล่น เฟซ อะ </s>
-0.0004053116	ของ เรา อะ </s>
-0.3981702	ชอบ เพจ อะไร นะ	2.252488
-0.3981702	ชอบ เพจ อะไร หรอ	2.252488
-0.9381528	เพจ โพสต์ อะไร ที	0.5430635
-0.9961455	เพจ โพสต์ อะไร บ้าง	0.5430635
-0.9381528	เพจ โพสต์ อะไร ละ	0.5430635
-0.9381528	เพจ โพสต์ อะไร สิ	0.5430635
-1.06309	เพจ โพสต์ อะไร หน่อย	0.5430635
-0.6651502	เพจ โพสต์ อะไร อะ	0.5430635
-1.290223	เรา โพสต์ อะไร ที	0.1750867
-1.348216	เรา โพสต์ อะไร บ้าง	0.1750867
-1.290223	เรา โพสต์ อะไร ละ	0.1750867
-1.290223	เรา โพสต์ อะไร สิ	0.1750867
-1.41516	เรา โพสต์ อะไร หน่อย	0.1750867
-1.017221	เรา โพสต์ อะไร อะ	0.1750867
-0.4773095	เรา โพสต์ อะไร ไป
-0.0004050732	เพื่อน ใช้ อะไร เล่น	2.185355
-0.1764891	<s> เพื่อน เช็คอิน ที่	2.252488
-0.1764891	<s> เรา เช็คอิน ที่	2.252488
-0.0002026558	<s> ขอ เพจ ที่	1.988703
-0.2220862	ถูกใจ ของ เพจ </s>
-1.211084	ถูกใจ ของ เพจ ที	2.428649
-1.269077	ถูกใจ ของ เพจ บ้าง	2.428393
-1.211084	ถูกใจ ของ เพจ ละ	2.428649
-1.211084	ถูกใจ ของ เพจ สิ	2.428649
-1.336021	ถูกใจ ของ เพจ หน่อย	2.428393
-0.9380815	ถูกใจ ของ เพจ อะ	2.428138
-0.0006074905	เพื่อน ชอบ เพจ อะไร
-0.0004050732	เรา ชอบ เพจ อะไร
-0.0006074905	คน ถูกใจ เพจ กี่คน
-0.8135211	เพื่อน ของ เพื่อน ที	2.252488
-0.8715141	เพื่อน ของ เพื่อน บ้าง	2.252488
-0.8135211	เพื่อน ของ เพื่อน ละ	2.252488
-0.8135211	เพื่อน ของ เพื่อน สิ	2.252488
-0.9384582	เพื่อน ของ เพื่อน หน่อย	2.252488
-0.540519	เพื่อน ของ เพื่อน อะ	2.252488
-0.0002026558	ขอ ดู เพื่อน ของ	2.462321
-0.0006074905	หนังสือ ที่ เพื่อน ชอบ
-0.0004050732	อะไร ที่ เพื่อน ใช้	2.185355
-0.0006074905	ไหน ที่ เพื่อน เช็คอิน
-0.9381528	เพื่อน ของ เรา ที	2.185611
-0.9961455	เพื่อน ของ เรา บ้าง	2.185355
-0.9381528	เพื่อน ของ เรา ละ	2.185611
-0.9381528	เพื่อน ของ เรา สิ	2.185611
-1.06309	เพื่อน ของ เรา หน่อย	2.185355
-0.6651502	เพื่อน ของ เรา อะ	2.1851
-0.1762903	เพจ ที่ เรา ชอบ	0.2421387
-0.4773095	เพจ ที่ เรา ถูกใจ	2.252469
-0.0004050732	ใช้ อะไร เล่น เฟซ
-0.0004050732	เพื่อน ใช้ เล่น เฟซ
-0.0006074905	โพสต์ ล่าสุด แชร์ กี่คน
-0.0004051924	ความคิดเห็น ของ โพสต์ ล่าสุด	0.2422435
-0.0004050732	คน ถูกใจ โพสต์ ล่าสุด	2.185355
-0.0006074905	เพจ มี โพสต์ อะไร
-0.0003039837	<s> เพจ โพสต์ อะไร	0.2421387
-0.0006074905	<s> เพื่อน โพสต์ อะไร
-0.0002026558	<s> เรา โพสต์ อะไร	0.2548963
-0.0006074905	คน แชร์ โพสต์ ล่าสุด	2.252488
-0.0004050732	<s> เพื่อน ใช้ อะไร	2.185355
-0.0004050732	ที่ เพื่อน ใช้ เล่น	2.185355
-0.0004050732	<s> ที่ ไหน ที่	0.2422434
-0.3013229	เช็คอิน ที่ ไหน </s>

\5-grams:
-0.4822609	มี คน ถูกใจ กี่คน </s>
-1.119083	มี คน ถูกใจ กี่คน ที
-1.177076	มี คน ถูกใจ กี่คน บ้าง
-1.119083	มี คน ถูกใจ กี่คน ละ
-1.119083	มี คน ถูกใจ กี่คน สิ
-1.24402	มี คน ถูกใจ กี่คน หน่อย
-0.8460808	มี คน ถูกใจ กี่คน อะ
-0.3802111	ถูกใจ โพสต์ ล่าสุด กี่คน </s>
-0.1249387	แชร์ โพสต์ ล่าสุด กี่คน </s>
-0.1249387	<s> ขอ ความคิดเห็น ของ โพสต์
-0.06694674	ขอ จำนวน ถูกใจ ของ เพจ
-0.1249387	ดู จำนวน ถูกใจ ของ เพจ
-0.5378191	ขอ ดู เพื่อน ของ เพื่อน
-0.236789	ขอ ดู เพื่อน ของ เรา
-0.02802873	<s> เพจ มี คน ถูกใจ
-0.1249387	โพสต์ ล่าสุด มี ความคิดเห็น อะไร
-0.3802112	<s> ขอ ดู จำนวน ถูกใจ
-1.062791	เพจ ที่ เรา ชอบ ที
-1.120784	เพจ ที่ เรา ชอบ บ้าง
-1.062791	เพจ ที่ เรา ชอบ ละ
-1.062791	เพจ ที่ เรา ชอบ สิ
-1.187728	เพจ ที่ เรา ชอบ หน่อย
-0.789789	เพจ ที่ เรา ชอบ อะ
-0.3802112	<s> มี คน ถูกใจ เพจ
-0.02802873	เพจ มี คน ถูกใจ กี่คน
-0.06694674	<s> ขอ จำนวน ถูกใจ ของ
-0.1249387	ขอ ดู จำนวน ถูกใจ ของ
-0.1249387	<s> โพสต์ ล่าสุด ถูกใจ กี่คน
-0.9378526	เพจ ที่ เรา ถูกใจ ที
-0.9958453	เพจ ที่ เรา ถูกใจ บ้าง
-0.9378526	เพจ ที่ เรา ถูกใจ ละ
-0.9378526	เพจ ที่ เรา ถูกใจ สิ
-1.062789	เพจ ที่ เรา ถูกใจ หน่อย
-0.66485	เพจ ที่ เรา ถูกใจ อะ
-0.06694674	คน ถูกใจ กี่คน ที </s>
-0.06694674	ที่ เรา ชอบ ที </s>
-0.1249387	ที่ เรา ถูกใจ ที </s>
-0.1249387	ของ โพสต์ ล่าสุด ที </s>
-0.3802111	เพจ โพสต์ อะไร ที </s>
-0.1249387	เรา โพสต์ อะไร ที </s>
-0.1249387	ถูกใจ ของ เพจ ที </s>
-0.1249387	เพื่อน ของ เพื่อน ที </s>
-0.06694674	เพื่อน ของ เรา ที </s>
-0.1249387	<s> ขอ หนังสือ ที่ เพื่อน
-0.1249387	<s> เพื่อน เช็คอิน ที่ ไหน
-0.1249387	<s> เรา เช็คอิน ที่ ไหน
-0.02020335	<s> ขอ เพจ ที่ เรา
-0.3802112	<s> ที่ ไหน ที่ เพื่อน
-0.1249387	ชอบ เพจ อะไร นะ </s>
-0.06694674	คน ถูกใจ กี่คน บ้าง </s>
-0.06694674	ที่ เรา ชอบ บ้าง </s>
-0.1249387	ที่ เรา ถูกใจ บ้าง </s>
-0.1249387	ของ โพสต์ ล่าสุด บ้าง </s>
-0.3802111	เพจ โพสต์ อะไร บ้าง </s>
-0.1249387	เรา โพสต์ อะไร บ้าง </s>
-0.1249387	ถูกใจ ของ เพจ บ้าง </s>
-0.1249387	เพื่อน ของ เพื่อน บ้าง </s>
-0.06694674	เพื่อน ของ เรา บ้าง </s>
-0.3802112	<s> โพสต์ ล่าสุด มี ความคิดเห็น
-0.06694674	คน ถูกใจ กี่คน ละ </s>
-0.06694674	ที่ เรา ชอบ ละ </s>
-0.1249387	ที่ เรา ถูกใจ ละ </s>
-0.1249387	ของ โพสต์ ล่าสุด ละ </s>
-0.3802111	เพจ โพสต์ อะไร ละ </s>
-0.1249387	เรา โพสต์ อะไร ละ </s>
-0.1249387	ถูกใจ ของ เพจ ละ </s>
-0.1249387	เพื่อน ของ เพื่อน ละ </s>
-0.06694674	เพื่อน ของ เรา ละ </s>
-1.193125	ความคิดเห็น ของ โพสต์ ล่าสุด ที
-1.251118	ความคิดเห็น ของ โพสต์ ล่าสุด บ้าง
-1.193125	ความคิดเห็น ของ โพสต์ ล่าสุด ละ
-1.193125	ความคิดเห็น ของ โพสต์ ล่าสุด สิ
-1.318062	ความคิดเห็น ของ โพสต์ ล่าสุด หน่อย
-0.9201225	ความคิดเห็น ของ โพสต์ ล่าสุด อะ
-0.06694674	คน ถูกใจ โพสต์ ล่าสุด กี่คน
-0.1249387	คน แชร์ โพสต์ ล่าสุด กี่คน
-0.06694674	คน ถูกใจ กี่คน สิ </s>
-0.06694674	ที่ เรา ชอบ สิ </s>
-0.1249387	ที่ เรา ถูกใจ สิ </s>
-0.1249387	ของ โพสต์ ล่าสุด สิ </s>
-0.3802111	เพจ โพสต์ อะไร สิ </s>
-0.1249387	เรา โพสต์ อะไร สิ </s>
-0.1249387	ถูกใจ ของ เพจ สิ </s>
-0.1249387	เพื่อน ของ เพื่อน สิ </s>
-0.06694674	เพื่อน ของ เรา สิ </s>
-0.1249387	<s> เพื่อน ชอบ หนังสือ อะไร
-0.06694674	คน ถูกใจ กี่คน หน่อย </s>
-0.06694674	ที่ เรา ชอบ หน่อย </s>
-0.1249387	ที่ เรา ถูกใจ หน่อย </s>
-0.1249387	ของ โพสต์ ล่าสุด หน่อย </s>
-0.3802111	เพจ โพสต์ อะไร หน่อย </s>
-0.1249387	เรา โพสต์ อะไร หน่อย </s>
-0.1249387	ถูกใจ ของ เพจ หน่อย </s>
-0.1249387	เพื่อน ของ เพื่อน หน่อย </s>
-0.06694674	เพื่อน ของ เรา หน่อย </s>
-0.1249387	ชอบ เพจ อะไร หรอ </s>
-0.06694674	คน ถูกใจ กี่คน อะ </s>
-0.06694674	ที่ เรา ชอบ อะ </s>
-0.1249387	ที่ เรา ถูกใจ อะ </s>
-0.1249387	ของ โพสต์ ล่าสุด อะ </s>
-0.3802111	เพจ โพสต์ อะไร อะ </s>
-0.1249387	เรา โพสต์ อะไร อะ </s>
-0.1249387	ถูกใจ ของ เพจ อะ </s>
-0.1249387	เพื่อน ของ เพื่อน อะ </s>
-0.06694674	เพื่อน ของ เรา อะ </s>
-1.062791	<s> เพจ โพสต์ อะไร ที
-1.120784	<s> เพจ โพสต์ อะไร บ้าง
-1.062791	<s> เพจ โพสต์ อะไร ละ
-1.062791	<s> เพจ โพสต์ อะไร สิ
-1.187728	<s> เพจ โพสต์ อะไร หน่อย
-0.7897887	<s> เพจ โพสต์ อะไร อะ
-1.511884	<s> เรา โพสต์ อะไร ที
-1.569877	<s> เรา โพสต์ อะไร บ้าง
-1.511884	<s> เรา โพสต์ อะไร ละ
-1.511884	<s> เรา โพสต์ อะไร สิ
-1.636821	<s> เรา โพสต์ อะไร หน่อย
-1.238881	<s> เรา โพสต์ อะไร อะ
-0.69897	<s> เรา โพสต์ อะไร ไป
-0.06694674	<s> เพื่อน ใช้ อะไร เล่น
-0.3061696	จำนวน ถูกใจ ของ เพจ </s>
-1.295175	จำนวน ถูกใจ ของ เพจ ที
-1.353167	จำนวน ถูกใจ ของ เพจ บ้าง
-1.295175	จำนวน ถูกใจ ของ เพจ ละ
-1.295175	จำนวน ถูกใจ ของ เพจ สิ
-1.420112	จำนวน ถูกใจ ของ เพจ หน่อย
-1.022172	จำนวน ถูกใจ ของ เพจ อะ
-0.1249387	<s> เพื่อน ชอบ เพจ อะไร
-0.06694674	<s> เรา ชอบ เพจ อะไร
-0.1249387	มี คน ถูกใจ เพจ กี่คน
-0.9378526	ดู เพื่อน ของ เพื่อน ที
-0.9958453	ดู เพื่อน ของ เพื่อน บ้าง
-0.9378526	ดู เพื่อน ของ เพื่อน ละ
-0.9378526	ดู เพื่อน ของ เพื่อน สิ
-1.062789	ดู เพื่อน ของ เพื่อน หน่อย
-0.66485	ดู เพื่อน ของ เพื่อน อะ
-0.02020335	<s> ขอ ดู เพื่อน ของ
-0.1249387	ขอ หนังสือ ที่ เพื่อน ชอบ
-0.06694674	<s> อะไร ที่ เพื่อน ใช้
-0.1249387	ที่ ไหน ที่ เพื่อน เช็คอิน
-1.062791	ดู เพื่อน ของ เรา ที
-1.120784	ดู เพื่อน ของ เรา บ้าง
-1.062791	ดู เพื่อน ของ เรา ละ
-1.062791	ดู เพื่อน ของ เรา สิ
-1.187728	ดู เพื่อน ของ เรา หน่อย
-0.789789	ดู เพื่อน ของ เรา อะ
-0.236789	ขอ เพจ ที่ เรา ชอบ
-0.5378191	ขอ เพจ ที่ เรา ถูกใจ
-0.06694674	เพื่อน ใช้ อะไร เล่น เฟซ
-0.06694674	ที่ เพื่อน ใช้ เล่น เฟซ
-0.1249387	<s> โพสต์ ล่าสุด แชร์ กี่คน
-0.1249387	ขอ ความคิดเห็น ของ โพสต์ ล่าสุด
-0.1249387	<s> คน ถูกใจ โพสต์ ล่าสุด
-0.1249387	<s> เพจ มี โพสต์ อะไร
-0.06694674	อะไร ที่ เพื่อน ใช้ เล่น
-0.1249387	เรา เช็คอิน ที่ ไหน </s>

\end\
