
\data\
ngram 1=36
ngram 2=122
ngram 3=110
ngram 4=86
ngram 5=56

\1-grams:
-0.8377179	</s>
-99	<s>	-1.592181
-1.514969	กี่คน	-1.411466
-2.224663	ขอ	-1.191995
-1.514969	ของ	-1.020282
-1.650631	คน	-1.585632
-1.650631	ความคิดเห็น	-0.7144198
-1.848999	จำนวน	-0.8609996
-1.848999	ชอบ	-0.6758139
-2.224663	ดู	-1.175112
-1.514969	ถูกใจ	-0.8973191
-1.411749	ที	-1.274234
-1.258521	ที่	-1.59994
-1.848999	นะ	-0.9732036
-1.848999	บ้าง	-0.6606044
-1.650631	มี	-1.016049
-2.224663	ละ	-1.274234
-1.650631	ล่าสุด	-0.4252993
-1.650631	สิ	-1.274234
-1.848999	หนังสือ	-0.5513118
-1.514969	หน่อย	-0.9732036
-1.650631	หรอ	-1.274234
-1.328412	อะ	-1.895599
-1.258521	อะไร	-0.8417568
-1.848999	เช็คอิน	-0.3778496
-1.411749	เพจ	-0.8784236
-1.119152	เพจเพจ
-1.514969	เพื่อน	-1.042766
-2.224663	เฟซ	-0.2851278
-1.650631	เรา	-0.8316007
-1.848999	เล่น	-1.339826
-1.650631	แชร์	-0.6554958
-1.198334	โพสต์	-2.185075
-2.224663	ใช้	-0.8534165
-2.224663	ไป	-0.1464053
-1.848999	ไหน	-0.5536697

\2-grams:
-0.5680798	<s> ขอ	0
-1.433381	<s> คน	0.3115301
-1.910502	<s> ความคิดเห็น
-1.433381	<s> ที่	-0.6545812
-1.308442	<s> มี	-0.6292123
-1.433381	<s> อะไร	-0.8038977
-0.8691098	<s> เพจ	-1.175747
-0.8313212	<s> เพื่อน	-0.4547372
-0.8313212	<s> เรา	-0.6540791
-0.95626	<s> โพสต์	-1.32069
-0.2510766	กี่คน </s>
-0.514318	กี่คน ละ	0
-0.9914393	กี่คน อะ	1.361728
-1.067406	ขอ ความคิดเห็น	-0.3061095
-0.8913149	ขอ จำนวน	-0.2850025
-0.4141936	ขอ ดู	0
-1.067406	ขอ หนังสือ	-0.39794
-0.5902849	ขอ เพจ	-1.253699
-0.4344569	ของ เพจ	-0.3533485
-0.9115781	ของ เพื่อน
-0.6105481	ของ เรา	-0.1007843
-0.7354869	ของ โพสต์	-0.5030297
-0.1455114	คน ถูกใจ	-0.6768523
-0.5848441	คน แชร์	-0.09167504
-0.3061696	ความคิดเห็น ของ	-0.7568569
-0.4822609	ความคิดเห็น อะไร
-0.1398791	จำนวน ถูกใจ	-1.093032
-0.8388491	จำนวน แชร์
-0.8866996	ชอบ </s>
-0.8866996	ชอบ ที	0.7403627
-0.8866996	ชอบ สิ	0.7403627
-0.8866996	ชอบ หนังสือ	-0.39794
-0.4887595	ชอบ เพจ	-1.1315
-0.5057665	ดู จำนวน	0.3260123
-0.2047364	ดู เพื่อน	-1.24221
-0.4423591	ถูกใจ กี่คน	0.2902216
-0.6464791	ถูกใจ ของ	-1.005014
-1.345449	ถูกใจ ที
-1.345449	ถูกใจ หน่อย
-1.044419	ถูกใจ เพจ	-0.5744514
-0.8683279	ถูกใจ โพสต์	-0.5030297
-0.02020339	ที </s>
-0.5076246	ที่ เพื่อน	-0.3324724
-0.5076246	ที่ เรา	-0.3215652
-0.4496326	ที่ ไหน	0.06010741
-0.04139268	นะ </s>
-0.1812309	บ้าง </s>
-0.7832909	บ้าง อะ
-0.2126081	มี คน	0.3304851
-0.9115781	มี ความคิดเห็น	-0.4285159
-1.212608	มี อะไร
-0.9115781	มี โพสต์	-0.3432965
-0.02020339	ละ </s>
-1.390086	ล่าสุด </s>
-0.691116	ล่าสุด กี่คน	-0.1095359
-1.089056	ล่าสุด คน
-1.089056	ล่าสุด ถูกใจ	-0.4074854
-1.390086	ล่าสุด ที
-1.390086	ล่าสุด ที่
-0.788026	ล่าสุด มี	-0.07942697
-1.390086	ล่าสุด หน่อย
-1.089056	ล่าสุด แชร์	-0.3337861
-0.02020339	สิ </s>
-0.4259687	หนังสือ ที่	-0.4404529
-0.4259687	หนังสือ อะไร
-0.04139268	หน่อย </s>
-0.02020339	หรอ </s>
-0.004746435	อะ </s>
-0.8214723	อะไร </s>
-1.043321	อะไร ที่	-0.6834909
-1.043321	อะไร นะ	0.1962947
-0.9183823	อะไร บ้าง	0.107999
-1.520442	อะไร ล่าสุด
-1.043321	อะไร หรอ	0.4973247
-0.742291	อะไร อะ	0.6213651
-1.043321	อะไร เล่น	0.4973247
-1.219412	อะไร ไป
-0.8081145	เช็คอิน </s>
-0.5070845	เช็คอิน ที่	-0.8508759
-1.109144	เช็คอิน ล่าสุด
-1.109144	เช็คอิน อะ
-1.109144	เช็คอิน ไหน
-1.03438	เพจ </s>
-1.210471	เพจ กี่คน
-0.7333497	เพจ ที่	-1.180816
-0.6664029	เพจ มี	-0.4224522
-1.210471	เพจ สิ	0.7403627
-1.511501	เพจ หน่อย
-0.8125309	เพจ อะไร	-0.2442704
-0.909441	เพจ โพสต์	-0.7826291
-0.6860051	เพื่อน ของ	-0.685501
-0.6860051	เพื่อน ชอบ	0.04121874
-1.464156	เพื่อน ที
-1.464156	เพื่อน หน่อย
-0.7651863	เพื่อน เช็คอิน	0.07061793
-1.163126	เพื่อน โพสต์	-0.3432965
-0.6860051	เพื่อน ใช้	0
-1	เฟซ </s>
-1	เฟซ นะ
-0.69897	เฟซ หรอ	0.7403627
-0.69897	เฟซ อะ	1.361728
-1.406974	เรา </s>
-0.5618761	เรา ชอบ	-0.03027567
-1.105944	เรา ถูกใจ
-1.406974	เรา ที
-1.105944	เรา สิ	0.7403627
-0.8049141	เรา เช็คอิน	0.02563106
-0.6288229	เรา โพสต์	-1.083659
-0.02020339	เล่น เฟซ	0
-0.3364597	แชร์ กี่คน	0.2212653
-0.9385197	แชร์ ของ
-0.6374897	แชร์ โพสต์	-0.2599917
-0.2635369	โพสต์ ล่าสุด	-0.1553432
-0.3478578	โพสต์ อะไร	-0.0741058
-0.3617278	ใช้ อะไร	-0.8038977
-0.3617278	ใช้ เล่น	0.4973247
-0.69897	ไป </s>
-0.69897	ไป บ้าง
-0.451314	ไหน </s>
-0.5762527	ไหน ที่	-0.0724761
-1.053374	ไหน หรอ
-1.053374	ไหน อะ

\3-grams:
-0.3735807	ถูกใจ กี่คน </s>
-0.4985194	ถูกใจ กี่คน ละ	-1.904503
-0.1812309	ล่าสุด กี่คน </s>
-0.5698753	แชร์ กี่คน </s>
-1.067406	<s> ขอ ความคิดเห็น	-2.468901
-0.8913149	<s> ขอ จำนวน	-2.401828
-0.4141936	<s> ขอ ดู	-2.541872
-1.067406	<s> ขอ หนังสือ	-2.468901
-0.5902849	<s> ขอ เพจ	-2.205406
-0.06694679	ความคิดเห็น ของ โพสต์	-2.401828
-0.02802872	ถูกใจ ของ เพจ	-3.055669
-0.5378191	เพื่อน ของ เพื่อน
-0.2367891	เพื่อน ของ เรา	-0.1646312
-0.3802112	<s> คน ถูกใจ	-2.946594
-0.1203911	มี คน ถูกใจ	-0.4287674
-0.7224511	มี คน แชร์
-0.1249387	ขอ ความคิดเห็น ของ	-2.225863
-0.1249387	มี ความคิดเห็น อะไร
-0.06694679	ขอ จำนวน ถูกใจ	-2.042806
-0.3802112	ดู จำนวน ถูกใจ	-1.866841
-0.69897	เพื่อน ชอบ หนังสือ	-2.468901
-0.69897	เพื่อน ชอบ เพจ	-1.866841
-0.7067953	เรา ชอบ สิ	-2.468901
-0.5307041	เรา ชอบ เพจ	-2.042806
-0.5057665	ขอ ดู จำนวน	-0.2425537
-0.2047364	ขอ ดู เพื่อน	-2.205406
-0.30275	คน ถูกใจ กี่คน	-0.1918924
-0.7798712	คน ถูกใจ เพจ	-2.468901
-0.60378	คน ถูกใจ โพสต์	-2.401828
-0.02802872	จำนวน ถูกใจ ของ	-2.264553
-0.1249387	ล่าสุด ถูกใจ กี่คน
-0.1249387	ชอบ ที </s>
-0.06694679	<s> ที่ ไหน	-3.103503
-0.1249387	หนังสือ ที่ เพื่อน	-2.957218
-0.06694679	อะไร ที่ เพื่อน	-3.062754
-0.04139268	เช็คอิน ที่ ไหน	-0.1574289
-0.02020339	เพจ ที่ เรา	-3.050428
-0.3802112	ไหน ที่ เพื่อน	-2.957218
-0.06694679	อะไร นะ </s>
-0.2498775	อะไร บ้าง </s>
-0.04139268	<s> มี คน	0.01448345
-0.5698753	ล่าสุด มี ความคิดเห็น	-2.468901
-0.1918855	เพจ มี คน	-2.852677
-0.5898255	เพจ มี โพสต์	-2.468901
-0.02020339	กี่คน ละ </s>
-0.615025	โพสต์ ล่าสุด กี่คน	-0.2313634
-1.012965	โพสต์ ล่าสุด คน
-1.012965	โพสต์ ล่าสุด ถูกใจ	-2.468901
-0.711935	โพสต์ ล่าสุด มี	-0.1646312
-1.012965	โพสต์ ล่าสุด แชร์	-2.468901
-0.1249387	ชอบ สิ </s>
-0.1249387	เพจ สิ </s>
-0.1249387	เรา สิ </s>
-0.1249387	ขอ หนังสือ ที่	-2.468901
-0.1249387	ชอบ หนังสือ อะไร
-0.06694679	อะไร หรอ </s>
-0.1249387	เฟซ หรอ </s>
-0.1249387	กี่คน อะ </s>
-0.02020339	อะไร อะ </s>
-0.1249387	เฟซ อะ </s>
-0.06694679	<s> อะไร ที่	-2.401828
-0.5740313	เพจ อะไร นะ	-2.225863
-0.5740313	เพจ อะไร หรอ	-2.225863
-0.7939455	โพสต์ อะไร </s>
-0.7939455	โพสต์ อะไร บ้าง	-0.1176149
-0.7939455	โพสต์ อะไร อะ	-1.904503
-0.9700368	โพสต์ อะไร ไป
-0.06694679	ใช้ อะไร เล่น	-2.401828
-0.7224511	เพื่อน เช็คอิน ที่	-2.029568
-0.5698753	เรา เช็คอิน ที่	-2.029568
-0.2158902	<s> เพจ มี	-2.627759
-0.4589283	<s> เพจ โพสต์	-2.330409
-0.02020339	ขอ เพจ ที่	-2.205406
-0.4259687	ของ เพจ </s>
-0.60206	ของ เพจ สิ	-2.468901
-0.02802872	ชอบ เพจ อะไร	-0.3674128
-0.1249387	ถูกใจ เพจ กี่คน
-0.5336026	<s> เพื่อน ชอบ	-3.162938
-0.6585413	<s> เพื่อน เช็คอิน	-0.385404
-0.8346326	<s> เพื่อน โพสต์	-2.468901
-0.6585413	<s> เพื่อน ใช้	-2.999141
-0.02020339	ดู เพื่อน ของ	-2.676206
-0.6374897	ที่ เพื่อน ชอบ
-0.6374897	ที่ เพื่อน เช็คอิน
-0.4613985	ที่ เพื่อน ใช้	-2.999141
-0.69897	เล่น เฟซ หรอ	-2.468901
-0.69897	เล่น เฟซ อะ	-2.468901
-0.6354837	<s> เรา ชอบ	-3.095335
-0.6354837	<s> เรา เช็คอิน	-0.3404171
-0.3344538	<s> เรา โพสต์	-2.205406
-0.5698753	ของ เรา สิ	-2.468901
-0.3364597	ที่ เรา ชอบ	-0.2058755
-0.6374897	ที่ เรา ถูกใจ
-0.06694679	อะไร เล่น เฟซ
-0.06694679	ใช้ เล่น เฟซ
-0.4259687	คน แชร์ กี่คน
-0.4259687	คน แชร์ โพสต์	-2.468901
-0.1249387	ล่าสุด แชร์ กี่คน
-0.009545318	<s> โพสต์ ล่าสุด	-3.47554
-0.06694679	ของ โพสต์ ล่าสุด
-0.06694679	ถูกใจ โพสต์ ล่าสุด	-3.126224
-0.1249387	มี โพสต์ อะไร
-0.04139268	เพจ โพสต์ อะไร	-0.2247608
-0.1249387	เพื่อน โพสต์ อะไร
-0.02020339	เรา โพสต์ อะไร	-0.1268154
-0.1249387	แชร์ โพสต์ ล่าสุด	-2.950259
-0.3617278	เพื่อน ใช้ อะไร	-2.401828
-0.3617278	เพื่อน ใช้ เล่น	-2.401828
-0.5509075	ที่ ไหน </s>
-0.5509075	ที่ ไหน ที่	-0.2425537

\4-grams:
-0.3011494	คน ถูกใจ กี่คน </s>
-0.477237	คน ถูกใจ กี่คน ละ	2.644866
-0.09705656	โพสต์ ล่าสุด กี่คน </s>
-0.0003689843	ขอ ความคิดเห็น ของ โพสต์	2.644866
-0.0001476335	จำนวน ถูกใจ ของ เพจ	2.72831
-0.477237	ดู เพื่อน ของ เพื่อน
-0.1762125	ดู เพื่อน ของ เรา	0.1646312
-0.1251215	<s> มี คน ถูกใจ	-0.1091725
-0.0001476335	เพจ มี คน ถูกใจ	-0.7783023
-0.0003689843	<s> ขอ ความคิดเห็น ของ	2.468901
-0.0003689843	ล่าสุด มี ความคิดเห็น อะไร
-0.0002460264	<s> ขอ จำนวน ถูกใจ	2.401828
-0.1763337	ขอ ดู จำนวน ถูกใจ	2.468901
-0.3012091	<s> เพื่อน ชอบ หนังสือ	2.468901
-0.3012091	<s> เพื่อน ชอบ เพจ	2.468901
-0.0002460264	<s> เรา ชอบ เพจ	2.401828
-0.3012091	ที่ เรา ชอบ สิ	2.468901
-0.4771985	<s> ขอ ดู จำนวน	0.2425537
-0.1761721	<s> ขอ ดู เพื่อน	2.205406
-0.0003689843	<s> คน ถูกใจ โพสต์	2.644866
-0.2042106	มี คน ถูกใจ กี่คน	0.4465688
-0.6021441	มี คน ถูกใจ เพจ	2.468901
-0.0002460264	ขอ จำนวน ถูกใจ ของ	2.623575
-0.0003689843	ดู จำนวน ถูกใจ ของ	2.866613
-0.0003689843	โพสต์ ล่าสุด ถูกใจ กี่คน
-0.0003689843	ขอ หนังสือ ที่ เพื่อน	2.468901
-0.0002460264	<s> อะไร ที่ เพื่อน	2.401828
-0.0003689843	เพื่อน เช็คอิน ที่ ไหน
-0.0003689843	เรา เช็คอิน ที่ ไหน	-0.301209
-0.0001230317	ขอ เพจ ที่ เรา	2.676206
-0.1763337	ที่ ไหน ที่ เพื่อน	2.468901
-0.0003689843	เพจ อะไร นะ </s>
-0.1763337	โพสต์ อะไร บ้าง </s>
-0.3012091	โพสต์ ล่าสุด มี ความคิดเห็น	2.468901
-0.1462322	<s> เพจ มี คน	2.264553
-0.5441657	<s> เพจ มี โพสต์	2.468901
-0.0002460264	ถูกใจ กี่คน ละ </s>
-0.6532861	<s> โพสต์ ล่าสุด คน
-0.6532861	<s> โพสต์ ล่าสุด ถูกใจ	2.468901
-0.4771985	<s> โพสต์ ล่าสุด มี	0.06676778
-0.6532861	<s> โพสต์ ล่าสุด แชร์	2.468901
-0.0002460264	ถูกใจ โพสต์ ล่าสุด กี่คน	0.4643011
-0.0003689843	แชร์ โพสต์ ล่าสุด กี่คน	0.09632427
-0.0003689843	เรา ชอบ สิ </s>
-0.0003689843	ของ เพจ สิ </s>
-0.0003689843	ของ เรา สิ </s>
-0.0003689843	<s> ขอ หนังสือ ที่	2.468901
-0.0003689843	เพื่อน ชอบ หนังสือ อะไร
-0.0003689843	เพจ อะไร หรอ </s>
-0.0003689843	เล่น เฟซ หรอ </s>
-0.0002460264	โพสต์ อะไร อะ </s>
-0.0003689843	เล่น เฟซ อะ </s>
-0.3980811	ชอบ เพจ อะไร นะ	2.468901
-0.3980811	ชอบ เพจ อะไร หรอ	2.468901
-0.3012091	เพจ โพสต์ อะไร บ้าง
-0.477237	เรา โพสต์ อะไร ไป
-0.0002460264	เพื่อน ใช้ อะไร เล่น	2.401828
-0.1763337	<s> เพื่อน เช็คอิน ที่	2.468901
-0.1763337	<s> เรา เช็คอิน ที่	2.468901
-0.0001230317	<s> ขอ เพจ ที่	2.205406
-0.2219935	ถูกใจ ของ เพจ </s>
-0.3980811	ถูกใจ ของ เพจ สิ	2.468901
-0.0003689843	เพื่อน ชอบ เพจ อะไร
-0.0002460264	เรา ชอบ เพจ อะไร
-0.0003689843	คน ถูกใจ เพจ กี่คน
-0.0001230317	ขอ ดู เพื่อน ของ	2.676206
-0.0003689843	หนังสือ ที่ เพื่อน ชอบ
-0.0002460264	อะไร ที่ เพื่อน ใช้	2.401828
-0.0003689843	ไหน ที่ เพื่อน เช็คอิน
-0.3012091	เพื่อน ของ เรา สิ	2.468901
-0.1762125	เพจ ที่ เรา ชอบ	0.1646312
-0.477237	เพจ ที่ เรา ถูกใจ
-0.0002460264	ใช้ อะไร เล่น เฟซ
-0.0002460264	เพื่อน ใช้ เล่น เฟซ
-0.0003689843	โพสต์ ล่าสุด แชร์ กี่คน
-0.0002460264	ความคิดเห็น ของ โพสต์ ล่าสุด
-0.0002460264	คน ถูกใจ โพสต์ ล่าสุด	2.401828
-0.0003689843	เพจ มี โพสต์ อะไร
-0.0001845336	<s> เพจ โพสต์ อะไร	0.1646312
-0.0003689843	<s> เพื่อน โพสต์ อะไร
-0.0001230317	<s> เรา โพสต์ อะไร	0.1100136
-0.0003689843	คน แชร์ โพสต์ ล่าสุด	2.468901
-0.0002460264	<s> เพื่อน ใช้ อะไร	2.401828
-0.0002460264	ที่ เพื่อน ใช้ เล่น	2.401828
-0.0002460264	<s> ที่ ไหน ที่	0.2425537
-0.3012091	เช็คอิน ที่ ไหน </s>

\5-grams:
-0.5740313	มี คน ถูกใจ กี่คน </s>
-0.5740313	มี คน ถูกใจ กี่คน ละ
-0.3802112	ถูกใจ โพสต์ ล่าสุด กี่คน </s>
-0.1249387	แชร์ โพสต์ ล่าสุด กี่คน </s>
-0.1249387	<s> ขอ ความคิดเห็น ของ โพสต์
-0.06694679	ขอ จำนวน ถูกใจ ของ เพจ
-0.1249387	ดู จำนวน ถูกใจ ของ เพจ
-0.5378191	ขอ ดู เพื่อน ของ เพื่อน
-0.2367891	ขอ ดู เพื่อน ของ เรา
-0.02802872	<s> เพจ มี คน ถูกใจ
-0.1249387	โพสต์ ล่าสุด มี ความคิดเห็น อะไร
-0.3802112	<s> ขอ ดู จำนวน ถูกใจ
-0.5698753	เพจ ที่ เรา ชอบ สิ
-0.3802112	<s> มี คน ถูกใจ เพจ
-0.02802872	เพจ มี คน ถูกใจ กี่คน
-0.06694679	<s> ขอ จำนวน ถูกใจ ของ
-0.1249387	ขอ ดู จำนวน ถูกใจ ของ
-0.1249387	<s> โพสต์ ล่าสุด ถูกใจ กี่คน
-0.1249387	<s> ขอ หนังสือ ที่ เพื่อน
-0.1249387	<s> เพื่อน เช็คอิน ที่ ไหน
-0.1249387	<s> เรา เช็คอิน ที่ ไหน
-0.02020339	<s> ขอ เพจ ที่ เรา
-0.3802112	<s> ที่ ไหน ที่ เพื่อน
-0.1249387	ชอบ เพจ อะไร นะ </s>
-0.3802112	<s> โพสต์ ล่าสุด มี ความคิดเห็น
-0.1249387	คน ถูกใจ กี่คน ละ </s>
-0.06694679	คน ถูกใจ โพสต์ ล่าสุด กี่คน
-0.1249387	คน แชร์ โพสต์ ล่าสุด กี่คน
-0.1249387	ที่ เรา ชอบ สิ </s>
-0.1249387	ถูกใจ ของ เพจ สิ </s>
-0.1249387	เพื่อน ของ เรา สิ </s>
-0.1249387	<s> เพื่อน ชอบ หนังสือ อะไร
-0.1249387	ชอบ เพจ อะไร หรอ </s>
-0.5698753	<s> เพจ โพสต์ อะไร บ้าง
-0.8507019	<s> เรา โพสต์ อะไร ไป
-0.06694679	<s> เพื่อน ใช้ อะไร เล่น
-0.3061696	จำนวน ถูกใจ ของ เพจ </s>
-0.4822609	จำนวน ถูกใจ ของ เพจ สิ
-0.1249387	<s> เพื่อน ชอบ เพจ อะไร
-0.06694679	<s> เรา ชอบ เพจ อะไร
-0.1249387	มี คน ถูกใจ เพจ กี่คน
-0.02020339	<s> ขอ ดู เพื่อน ของ
-0.1249387	ขอ หนังสือ ที่ เพื่อน ชอบ
-0.06694679	<s> อะไร ที่ เพื่อน ใช้
-0.1249387	ที่ ไหน ที่ เพื่อน เช็คอิน
-0.5698753	ดู เพื่อน ของ เรา สิ
-0.2367891	ขอ เพจ ที่ เรา ชอบ
-0.5378191	ขอ เพจ ที่ เรา ถูกใจ
-0.06694679	เพื่อน ใช้ อะไร เล่น เฟซ
-0.06694679	ที่ เพื่อน ใช้ เล่น เฟซ
-0.1249387	<s> โพสต์ ล่าสุด แชร์ กี่คน
-0.1249387	ขอ ความคิดเห็น ของ โพสต์ ล่าสุด
-0.1249387	<s> คน ถูกใจ โพสต์ ล่าสุด
-0.1249387	<s> เพจ มี โพสต์ อะไร
-0.06694679	อะไร ที่ เพื่อน ใช้ เล่น
-0.1249387	เรา เช็คอิน ที่ ไหน </s>

\end\
